{"layers":[{"out_depth":59,"out_sx":1,"out_sy":1,"layer_type":"input"},{"out_depth":50,"out_sx":1,"out_sy":1,"layer_type":"fc","num_inputs":59,"l1_decay_mul":0,"l2_decay_mul":1,"filters":[{"sx":1,"sy":1,"depth":59,"w":{"0":0.2834784092608861,"1":-0.32161870614583143,"2":-0.0657877215212181,"3":0.265472115179025,"4":0.09678235031633324,"5":-0.06380371949208574,"6":0.399061867966143,"7":-0.19783229594695356,"8":0.1269728975619383,"9":0.1921898292092804,"10":-0.3818115265816839,"11":-0.21857105047290665,"12":0.4234100889166713,"13":-0.14287300696632524,"14":-0.030815764287300408,"15":0.4410736366640679,"16":-0.3669187717927271,"17":-0.07473467115270982,"18":0.44745126400057234,"19":-0.2637504006378469,"20":-0.02717422011136015,"21":0.2955648775876105,"22":-0.14854501021081695,"23":0.14177290202055948,"24":0.10620675653392006,"25":-0.28232420066596664,"26":0.29861538676183286,"27":0.3623589847431049,"28":0.1228816317701185,"29":0.3070850932526258,"30":0.43668220574617517,"31":0.16266537310757248,"32":-0.01861373226157456,"33":0.4676098350993735,"34":0.11264232251559445,"35":-0.3277712056094887,"36":0.2166201872704812,"37":0.34778139301472083,"38":0.22276723338210694,"39":0.1945124718510131,"40":0.31797409652513875,"41":0.10870560954689719,"42":0.3939081562244845,"43":0.2747230309890443,"44":-0.035220096551206496,"45":0.256373876215036,"46":0.21855099102869924,"47":0.27440638243393944,"48":0.2568919857123752,"49":0.04435310930581028,"50":0.1346332756235401,"51":0.2487982293259628,"52":0.302648833750042,"53":-0.014568557066497474,"54":-0.262582771118409,"55":-0.1577249186303409,"56":-0.10678305847909789,"57":-0.05752767745180993,"58":-0.052513926870922996}},{"sx":1,"sy":1,"depth":59,"w":{"0":-0.17135729600233182,"1":0.16995275017598235,"2":-0.06296723869425268,"3":-0.08099530547270234,"4":0.045522082467712784,"5":0.09839294198905357,"6":-0.1090475763879289,"7":0.026164130010713098,"8":0.012073835438212322,"9":-0.06918237829465715,"10":-0.06587540328978303,"11":-0.015858497861690912,"12":-0.18086973510447416,"13":0.17248665924088422,"14":-0.18257429217275437,"15":-0.1365976258011297,"16":-0.22672122155940985,"17":0.20582948910284785,"18":0.011651156452622977,"19":-0.08475910868579353,"20":0.20787480587246432,"21":0.009928922665511222,"22":-0.0007553154532248855,"23":0.2556189012782182,"24":0.31862109917394293,"25":-0.2420736774884992,"26":0.1700237436015467,"27":0.13905935598677707,"28":-0.032616295873849455,"29":0.1442658020765992,"30":0.05107620083963218,"31":-0.056188446923557,"32":-0.07895651797891315,"33":-0.16910665034400155,"34":0.08298620557979032,"35":0.018563243420099306,"36":-0.040540587279089955,"37":-0.028130759631072765,"38":-0.12871298780737167,"39":0.13102840442801003,"40":-0.2445928000168379,"41":0.019689218387495832,"42":-0.24565044932582578,"43":0.11137844091832232,"44":-0.04614228653804098,"45":-0.35561665361973877,"46":-0.1518492738912009,"47":-0.20021681611672343,"48":0.11508321390571535,"49":0.02277633759352166,"50":0.07425111575514313,"51":-0.04731057523160819,"52":-0.02338198407586065,"53":0.08076932985426931,"54":0.0008275237892967052,"55":-0.06736383283270846,"56":0.07805862800804866,"57":0.0998115028414203,"58":-0.06673350618945068}},{"sx":1,"sy":1,"depth":59,"w":{"0":0.46542173568828216,"1":-0.10468600093808217,"2":-0.0020148798569978896,"3":0.42067802673009624,"4":0.03393201722617532,"5":-0.09127911445117441,"6":0.5576925730966419,"7":-0.14936345641658608,"8":0.04447606889237826,"9":0.30342227651616305,"10":-0.018786880215332168,"11":-0.12234121346059525,"12":0.2920014906466682,"13":-0.3686504330274816,"14":0.18226157506053656,"15":0.3419103359570571,"16":-0.29879617568528033,"17":0.08054768104590075,"18":0.5718693233442012,"19":-0.1993159635475491,"20":0.059598728310249496,"21":0.4242902220406411,"22":-0.23628777444262897,"23":-0.02181134044783305,"24":0.1663320380534872,"25":-0.16217029047822676,"26":-0.15452216502865856,"27":0.5391236430352492,"28":0.1762262618020766,"29":0.0925667339812234,"30":0.21482365947283047,"31":0.24269507748544097,"32":0.07665730065189355,"33":0.3829351788393258,"34":0.2750873775316852,"35":0.01696573315961273,"36":0.1523246721501977,"37":0.326232902204002,"38":-0.0311217023486566,"39":0.5508782609024374,"40":0.2522376529348708,"41":-0.18897642714864957,"42":0.3334732938000336,"43":0.10451183968182216,"44":-0.20556406278087735,"45":0.5864038633321028,"46":0.097585836587076,"47":-0.017834759767522905,"48":0.25240840983461904,"49":-0.04957552996357619,"50":0.1664839042995223,"51":0.27906133496429497,"52":-0.034674108794355736,"53":0.014186883750054566,"54":-0.07840531387451748,"55":-0.20973135513928085,"56":-0.16907017377040962,"57":-0.13143071708577028,"58":-0.14473015864921623}},{"sx":1,"sy":1,"depth":59,"w":{"0":-0.10089888231833492,"1":-0.0032308166482724727,"2":0.335743851754869,"3":-0.04749960085231751,"4":0.10546876117399784,"5":0.2088456113379146,"6":-0.07026279663562802,"7":-0.02616178292969976,"8":0.042135695793438586,"9":-0.18116996370989832,"10":-0.04612868636122746,"11":-0.06539745294922174,"12":-0.23640805310298726,"13":0.2681635271759658,"14":-0.007617348450212803,"15":-0.043407298618664054,"16":-0.022541161930879274,"17":0.021244304706039656,"18":-0.3946088948984519,"19":0.06724245750504786,"20":-0.2295271435220058,"21":-0.2939674665002261,"22":0.026465022574905517,"23":-0.0796464081729733,"24":-0.00457866667492821,"25":0.19543142387172263,"26":-0.18538176352812497,"27":-0.16000926030386733,"28":0.1021855537585142,"29":-0.03571271580474534,"30":0.0021482252688361683,"31":0.050802913618330135,"32":-0.1640513367033332,"33":-0.30265869857601096,"34":-0.21314275514088352,"35":-0.11265899417497545,"36":-0.3345711763751339,"37":0.005882626265424928,"38":-0.09090923430803598,"39":-0.026667655847555257,"40":0.17837432239487533,"41":-0.18611143425250234,"42":-0.3929600414131045,"43":-0.10244459898483627,"44":0.1725902403674895,"45":-0.1067607433867977,"46":0.18316277004443413,"47":0.047242050842100626,"48":-0.2649588102533246,"49":0.03587795834800865,"50":-0.050755522551746125,"51":-0.208885477195606,"52":-0.23005761261333538,"53":0.09300976672594269,"54":0.20623241982750912,"55":0.24658384193506058,"56":0.03355393627246317,"57":-0.12994994318900793,"58":0.20151480172921118}},{"sx":1,"sy":1,"depth":59,"w":{"0":-0.2158837978881786,"1":0.08498731653612569,"2":-0.005968018867049586,"3":-0.1184198585840212,"4":0.03142111161653117,"5":0.04214775449363854,"6":0.15704860991618116,"7":0.3671043871786609,"8":-0.07705209389172747,"9":-0.44819914376608716,"10":0.140301085825313,"11":0.013858686180345766,"12":-0.006276935605409789,"13":0.0362787192735001,"14":-0.11660648295764009,"15":-0.1500098689036701,"16":0.10350032748593771,"17":-0.15142243094874278,"18":0.02476440375364471,"19":-0.19481548685959543,"20":0.14135297853787382,"21":-0.06106993109956632,"22":0.01260938270412803,"23":-0.0742365002109564,"24":-0.34801513110001014,"25":-0.03935474438341952,"26":0.07145920196487066,"27":-0.1389064466078462,"28":-0.016149144464526567,"29":-0.0640866072897143,"30":-0.35629073011825335,"31":0.14723322638157896,"32":0.07610593320490727,"33":0.0718954467441061,"34":-0.33938202710223875,"35":0.17058940646148782,"36":-0.22071671745177915,"37":0.10008775279089406,"38":0.1308919158561053,"39":-0.30602030513419115,"40":-0.17866088449976178,"41":0.1277715633927411,"42":-0.3291388338500295,"43":-0.04996042502945978,"44":0.03906087199725395,"45":-0.13118672815916343,"46":0.023161830718672935,"47":-0.10728464449373272,"48":0.10581013161921204,"49":-0.04100309662115229,"50":0.11596043456853046,"51":-0.10858274875892476,"52":-0.16628457427096308,"53":-0.01457877095734704,"54":0.08007117011172313,"55":-0.03881871419127438,"56":-0.2445874991201166,"57":-0.17254490408857648,"58":0.2678240399006993}},{"sx":1,"sy":1,"depth":59,"w":{"0":-0.06754117405824005,"1":-0.0807983666912403,"2":-0.19537499553151194,"3":0.0964303055239708,"4":0.014575498927651106,"5":0.13291517286581642,"6":0.11422697637600135,"7":0.06764737735859326,"8":0.21733798309232905,"9":-0.010131047174069364,"10":-0.08268873806531915,"11":-0.15506128139377842,"12":0.11893070954519562,"13":0.17632328389499555,"14":-0.1478958305643087,"15":0.04494491411722968,"16":0.15499583788972737,"17":-0.13840809764417125,"18":-0.245949379851197,"19":-0.1705673572682894,"20":0.037803448158369696,"21":-0.05483891851019287,"22":-0.12826223442017295,"23":-0.05273792271590009,"24":0.05667734437058886,"25":-0.1936567972211955,"26":-0.06757923435600317,"27":0.10717690985516262,"28":-0.0828778349399306,"29":-0.048587851554595496,"30":-0.17908531958263424,"31":-0.029403689232336452,"32":0.03247870208500858,"33":-0.05395664474284489,"34":-0.21483402587051825,"35":0.0864251439625796,"36":-0.13131244896358862,"37":0.0673020232606398,"38":-0.154629547642105,"39":-0.1359342993697243,"40":0.1043969721406528,"41":0.07010720397618392,"42":0.18792658393459294,"43":-0.0005602338086491599,"44":-0.09185838694979875,"45":0.2166047213834052,"46":-0.08897004389720096,"47":-0.19502542421126284,"48":0.24450469952875117,"49":-0.19759499034332434,"50":0.19297770205130998,"51":0.2228057133258856,"52":0.10493508185416783,"53":0.10773352944406185,"54":0.007272268994850592,"55":0.06665592778828014,"56":-0.03535000712472358,"57":0.08268664175677529,"58":0.019748840963994218}},{"sx":1,"sy":1,"depth":59,"w":{"0":-0.016017278485760532,"1":-0.0447902427019972,"2":0.08567878884034247,"3":0.0176415015932733,"4":0.21516845851688707,"5":-0.00708440127786859,"6":0.05319083939747763,"7":-0.0685805515818137,"8":-0.03295571524600956,"9":-0.2162492855813941,"10":0.05162436402868263,"11":-0.0948638757248531,"12":-0.269216781620965,"13":0.006381999855282937,"14":-0.23320385197035495,"15":-0.018404570080761174,"16":0.05933850879210312,"17":0.06983901632313765,"18":-0.01861821483140877,"19":0.07012414412476686,"20":0.21182007206806694,"21":-0.013027434925436381,"22":0.20482612521058177,"23":-0.05883228065186464,"24":0.2042526890167363,"25":0.11577120918342719,"26":0.006771080121662945,"27":-0.1783364675848357,"28":-0.08116777144815655,"29":0.15692980488214917,"30":0.061967891059922474,"31":-0.051491718981821165,"32":0.13231464825670772,"33":-0.141373253918389,"34":-0.04242484130667071,"35":-0.007733280931279599,"36":0.048682561952793676,"37":-0.24573129000487723,"38":-0.09214667997209607,"39":-0.3012871467995453,"40":0.038224678642992095,"41":0.04147149883012984,"42":0.1282237574754928,"43":-0.0952941010514663,"44":-0.07087763464207793,"45":-0.05728932603242776,"46":0.07955226158826553,"47":-0.06521493523733958,"48":0.2314234399784453,"49":-0.12481696871285959,"50":-0.13756831444041162,"51":-0.0684851593825502,"52":0.15922452546628874,"53":0.16111517221891192,"54":0.1061446790073932,"55":-0.08475227038973848,"56":0.14459911400347422,"57":-0.11309994489775595,"58":-0.11621287145400891}},{"sx":1,"sy":1,"depth":59,"w":{"0":0.010770916963382919,"1":-0.2226862176749186,"2":-0.08758957285824498,"3":0.1029837088460412,"4":0.08516109788637198,"5":-0.024723215219265907,"6":0.543039660717883,"7":-0.0869398904327043,"8":-0.15777536956080884,"9":0.43286530243062904,"10":0.0717035571450781,"11":0.19347142630469624,"12":0.09829162660228213,"13":-0.1914275301203835,"14":0.0031020651039189743,"15":0.49649899889823185,"16":0.011697122438850462,"17":0.08794786882130463,"18":0.07866797178753841,"19":-0.011771700422135543,"20":0.1618133749717835,"21":0.45591758113044734,"22":-0.22156167697001486,"23":-0.1337218255447441,"24":0.15627616839213979,"25":-0.19728041979189415,"26":-0.09605537345578985,"27":0.21231465845354142,"28":-0.11800505099642862,"29":0.07954581117159198,"30":0.24771948494623008,"31":0.163254346478588,"32":0.08054946824645351,"33":0.08928451317012265,"34":0.13512132513197933,"35":0.029204148516595994,"36":0.43382571727020397,"37":0.026484466042008988,"38":0.1692287205851205,"39":0.3589785485557831,"40":-0.153839020488763,"41":0.11615181848520743,"42":0.390902612163177,"43":0.07014113063148601,"44":0.3349573595877256,"45":0.09080961204788589,"46":0.1363538050532393,"47":-0.14067247882203024,"48":0.4187333873364083,"49":-0.16780765920112733,"50":0.1925573291302795,"51":0.1619989372450628,"52":0.19787506025422394,"53":-0.09494541727181244,"54":-0.1527869727041285,"55":-0.1659508827742569,"56":-0.1676321843709781,"57":-0.20458903203344764,"58":-0.0651309490646632}},{"sx":1,"sy":1,"depth":59,"w":{"0":-0.1536229124943288,"1":0.011223037886744733,"2":0.06193879122780556,"3":-0.05771694944733746,"4":0.053800488975602447,"5":0.06600879878099164,"6":0.02964515776316727,"7":0.006617620238134081,"8":-0.02921411788206546,"9":0.011363575481656505,"10":0.13557595513130474,"11":-0.09452388270440529,"12":-0.23419872501075836,"13":0.16931205612161335,"14":0.03391018088885516,"15":-0.05198184870446723,"16":-0.08857687879730225,"17":0.07836568275247807,"18":-0.10487222412561457,"19":0.22374729601041188,"20":-0.20598517441731434,"21":-0.054823708434403394,"22":-0.0320513271062318,"23":-0.0584516847866189,"24":-0.03209102385530894,"25":-0.17571308596396681,"26":-0.011392231215793183,"27":0.16580031679045984,"28":-0.024399776638284562,"29":0.0379942152001253,"30":-0.003672293167083991,"31":0.026046984222948783,"32":-0.28652041661307553,"33":-0.015719928924939446,"34":0.07834044546514773,"35":-0.09376503455677598,"36":-0.0736528834660556,"37":0.0016493681845241022,"38":0.24915488882119297,"39":-0.10164489122994272,"40":-0.07911415323756917,"41":0.23141877816710985,"42":0.23494600912063812,"43":0.032895834314332954,"44":-0.10386215820196129,"45":0.12768357260292784,"46":0.10856472147502132,"47":-0.02636151921515429,"48":-0.0761409662814359,"49":-0.14250762844267062,"50":-0.15611353771124578,"51":-0.04357344931500716,"52":-0.005848247836950661,"53":0.09481985649268874,"54":-0.16571870864071597,"55":0.03728746118731982,"56":0.0325035263618352,"57":0.08055759561651837,"58":-0.11107416481212402}},{"sx":1,"sy":1,"depth":59,"w":{"0":0.17067262551920126,"1":-0.06091581015080724,"2":0.08805921898051529,"3":0.3282654603859797,"4":-0.21728075497543162,"5":-0.32703354397653406,"6":0.4462730886360931,"7":-0.13911758059896098,"8":0.12441752368463775,"9":0.5275750896109763,"10":-0.1784456867074906,"11":-0.04333855240035342,"12":0.5418093690392299,"13":-0.08762062814647403,"14":0.20435516884160806,"15":0.43834025622810924,"16":-0.1100364010673889,"17":0.06526299083700601,"18":0.4624704952056664,"19":-0.19209838871291007,"20":-0.05892010105224548,"21":0.20193202729462983,"22":-0.005257002040686643,"23":-0.155708122142113,"24":0.4041994288572077,"25":-0.2288412069892263,"26":-0.10821944287703404,"27":0.4822387369254491,"28":0.13668337161588343,"29":-0.25981007541905615,"30":0.3755923181510409,"31":0.022376167669457353,"32":0.05595785230296697,"33":0.33619864953190404,"34":0.271958458786745,"35":0.34309212058761335,"36":0.4452033039383863,"37":0.2634532516652414,"38":-0.11133546035746984,"39":0.47425198719869693,"40":0.1940757058728491,"41":0.11208477298085302,"42":0.35056599485052237,"43":0.11144873830681144,"44":-0.031084507205648326,"45":0.2453536717963267,"46":0.381515548272684,"47":0.06772656875896382,"48":0.32489615120971077,"49":0.021223526742608856,"50":-0.06288929563800823,"51":0.2885053090939635,"52":0.30495663199843454,"53":-0.17840739307517905,"54":-0.06298951199443203,"55":-0.27961552296625536,"56":-0.0653096649738898,"57":-0.1264425629887896,"58":-0.08168734389043146}},{"sx":1,"sy":1,"depth":59,"w":{"0":0.237625860954329,"1":-0.07403073203195983,"2":0.008280572124578051,"3":0.11810445163222005,"4":0.18040706838768628,"5":-0.17005102051218846,"6":0.46074941673362646,"7":0.02961381553902447,"8":-0.0027394115972054754,"9":0.05179440078011244,"10":-0.16402088517152133,"11":-0.04897335624679565,"12":0.13865408120106315,"13":0.10007344179071237,"14":-0.04280353032801139,"15":0.07474060695828563,"16":-0.005294799544314869,"17":-0.10319345228442443,"18":0.05868387984533855,"19":-0.24632951084232507,"20":0.07169375119529753,"21":-0.0031982515099005827,"22":-0.0330035952388515,"23":0.028401967337983683,"24":0.2161303249216509,"25":-0.18392867307183766,"26":-0.1477160597360835,"27":0.17910619747662715,"28":-0.06791480426363292,"29":0.13941896020797978,"30":0.15471841377499196,"31":-0.11781213735730062,"32":0.05166761746492707,"33":0.10080526309894024,"34":0.19808404752170197,"35":0.029013636341512848,"36":0.41883453564383216,"37":0.42285766762517063,"38":-0.09852359169965051,"39":0.0017965485753991626,"40":0.017056214697582877,"41":-0.06516472496197008,"42":0.16299374924257895,"43":0.24503833595517166,"44":-0.09795415789611048,"45":-0.12437926047974629,"46":-0.005386903624984463,"47":-0.032670551924216765,"48":-0.012035718484989313,"49":-0.04394434503203059,"50":0.062355259393649005,"51":0.102094317673057,"52":0.00927092855105731,"53":-0.02756958849888256,"54":-0.18410197608666984,"55":-0.053597167382045334,"56":-0.007022439650025452,"57":-0.04383998414943352,"58":-0.24323367594599113}},{"sx":1,"sy":1,"depth":59,"w":{"0":0.14815700861961473,"1":0.3834167482636569,"2":-0.16375014284269246,"3":-0.13621041667759937,"4":-0.07549859441294092,"5":-0.16319677539589353,"6":-0.0036692582934461835,"7":0.05369002001359491,"8":0.12606783290938822,"9":0.07871847887994485,"10":0.04617961152314755,"11":-0.11575082286699226,"12":-0.14224100226124753,"13":0.038354186126334455,"14":-0.10558302162152049,"15":-0.07665434820169846,"16":-0.2541950468538858,"17":-0.1475645457662056,"18":-0.2435055405924551,"19":-0.015055538472124914,"20":0.02643502758491029,"21":-0.03881650508177583,"22":-0.10723491573917879,"23":-0.011462922350094867,"24":-0.10021376109516555,"25":-0.04238408357236989,"26":0.022796474584766618,"27":-0.20473933959502305,"28":-0.22318617890498943,"29":0.271359749880947,"30":-0.06135428248517074,"31":-0.1448551714411121,"32":0.022708951463598387,"33":-0.027678715660884326,"34":-0.22672455753125006,"35":0.07980894086832467,"36":-0.2787503381096708,"37":0.10578726609258736,"38":0.04576520795896134,"39":-0.1381704209522808,"40":0.028355310036529587,"41":0.29111365066827777,"42":-0.15944868353662006,"43":0.07434224119595861,"44":0.17617706819386236,"45":-0.3920260635276861,"46":-0.0030482134808905797,"47":-0.05903681581585659,"48":0.05871598895723622,"49":-0.0009016456926312655,"50":0.18304129027538393,"51":-0.032999460761736876,"52":-0.06628664343448205,"53":0.038403818157764745,"54":0.1528006642212098,"55":-0.044159735090524885,"56":-0.18466991962040996,"57":0.12002924350292872,"58":0.0692775894003029}},{"sx":1,"sy":1,"depth":59,"w":{"0":0.20200672235031322,"1":-0.12530550119395545,"2":-0.08197818832716074,"3":0.06340646813698624,"4":-0.14229555888067694,"5":0.042596010409927734,"6":0.4113480607353558,"7":-0.13914360953913651,"8":-0.16721985996704822,"9":0.12910123267449608,"10":-0.10118398294883303,"11":-0.03681754094994725,"12":0.18596593034583522,"13":0.06581562570915445,"14":-0.023326722362971505,"15":-0.05880663481320691,"16":0.03949936421061617,"17":-0.03659524281769943,"18":0.018846761370227214,"19":-0.043291418382601116,"20":0.01821091457883902,"21":0.18089928018527718,"22":0.17899560003098194,"23":-0.0965619208187942,"24":0.08286634996140711,"25":-0.1816463812287454,"26":0.07108329092244133,"27":0.04808689382782937,"28":0.11492924184546612,"29":0.07600492017890416,"30":0.0890215654489107,"31":0.20430458797751333,"32":0.011281495069093473,"33":0.1574357633650256,"34":0.06800852063044582,"35":0.051276742761381756,"36":0.04848904505770657,"37":0.12397010998254206,"38":-0.04009418104753709,"39":0.39774512720684996,"40":-0.1743571437859542,"41":-0.15204046198489168,"42":0.04556829069073645,"43":0.01779319346006925,"44":0.12419525997705481,"45":-0.13700961218752536,"46":-0.01976830150207404,"47":-0.011240207654609547,"48":0.043271311911678004,"49":-0.18677374565285737,"50":0.05168612229466814,"51":0.05664618264790148,"52":0.22006827161481235,"53":-0.2917605018758138,"54":-0.10085611134364748,"55":-0.03823103444771131,"56":-0.08410154546634119,"57":-0.15431172910073843,"58":-0.044711271005238695}},{"sx":1,"sy":1,"depth":59,"w":{"0":0.06563008912368053,"1":0.089244110296611,"2":0.04930890974408627,"3":0.11390555937251712,"4":0.011429817897200172,"5":-0.2883128426792004,"6":0.18768521041701208,"7":-0.07662586764196214,"8":0.30370334860517256,"9":0.08112541956197483,"10":0.043885123657028596,"11":-0.10248823048921742,"12":0.3994204189444332,"13":0.003290087113568236,"14":0.09083999305710448,"15":0.15323449492997746,"16":0.13418602031057605,"17":-0.09918170082789315,"18":0.17958096928841633,"19":-0.043376578580150316,"20":-0.15315196754555424,"21":0.27481888898689083,"22":0.04758499724821355,"23":-0.04116136936327855,"24":0.28874469735788766,"25":0.24995947459738388,"26":0.08296002235193912,"27":0.050993464454362605,"28":0.1323049621143828,"29":-0.17787231326963004,"30":0.20892520517477803,"31":0.06702275998206754,"32":-0.09513702204992573,"33":-0.01948844164911102,"34":0.1320697045132372,"35":-0.019672293230238735,"36":0.2517411916330847,"37":-0.1918666246540943,"38":0.08479662475288977,"39":0.299984974221597,"40":0.28301572937599123,"41":-0.2351193606326819,"42":0.10925999163335236,"43":0.06534913191642928,"44":-0.027456453642186077,"45":0.2437234715473931,"46":0.2808422848128141,"47":0.06372634955265877,"48":-0.012696628104102218,"49":0.06722742633615814,"50":-0.05797822288908059,"51":0.3445643833300277,"52":-0.26491510130524176,"53":-0.06977361681919055,"54":-0.05756038582648177,"55":-0.1042724825543704,"56":-0.08115157708943282,"57":-0.2038735560223617,"58":-0.08621879350217317}},{"sx":1,"sy":1,"depth":59,"w":{"0":0.2222417484613533,"1":-0.09861508797263432,"2":0.16901376268045892,"3":0.09116234425050006,"4":0.14337016377918643,"5":0.10361565528378354,"6":0.1476540748222279,"7":-0.04848880305704635,"8":-0.1818521425245901,"9":0.11918393194315223,"10":0.12466859928592063,"11":0.14677924835041947,"12":0.14921867865697694,"13":-0.1008160066524939,"14":-0.03424923023515852,"15":0.29778260291733993,"16":-0.04178683358306775,"17":0.05006964978239418,"18":-0.14416244422492458,"19":-0.10571825987306191,"20":-0.06654563091395978,"21":0.04343771614353252,"22":-0.297016967942154,"23":0.010222138450379082,"24":0.31221002968113865,"25":-0.16808340644816375,"26":0.08312241265333152,"27":0.28559211495520503,"28":-0.005631258773117207,"29":0.027832478827205253,"30":0.1286306669803687,"31":0.04629846470483404,"32":-0.44623344373091256,"33":0.3303403602858389,"34":-0.14904961383275947,"35":0.07788352147339828,"36":0.014285731736949117,"37":0.009304554268159263,"38":-0.002210532698550861,"39":-0.030329677813658393,"40":0.18537924964331784,"41":0.17849770096853487,"42":-0.09483958844698549,"43":0.12377885303084671,"44":-0.1268592184274753,"45":0.1473105242648726,"46":0.05365661436252289,"47":0.02398682679288756,"48":0.23537253330523814,"49":-0.03204390965194737,"50":0.15135979353398185,"51":0.12029748398009077,"52":0.10121444945417361,"53":-0.10720358038499633,"54":-0.11062910020027603,"55":-0.2312944800706837,"56":-0.18178357251841737,"57":-0.04174505183451235,"58":-0.04227252366777624}},{"sx":1,"sy":1,"depth":59,"w":{"0":-0.063672696336852,"1":-0.07537559020571653,"2":-0.004948992913998354,"3":0.3358385802494491,"4":-0.056133930786657224,"5":-0.14325562774307124,"6":0.16986484059885948,"7":-0.13658222338214496,"8":-0.06384033653713365,"9":0.14774914428490207,"10":-0.04279862210729544,"11":-0.03628060695651817,"12":0.09433967281269981,"13":-0.11068542690716955,"14":0.2705564417299294,"15":0.27606104734928477,"16":-0.046637540437915646,"17":-0.08461607405882655,"18":-0.09347564894380819,"19":0.048618162950443286,"20":0.1054868313597796,"21":-0.007753452956328821,"22":-0.08822705981434951,"23":0.08770897675049585,"24":-0.05295806666038822,"25":-0.13301728501196655,"26":-0.1509406338239074,"27":0.1240909084546834,"28":-0.026342271094416506,"29":0.0034316004496026467,"30":-0.02266478601876305,"31":-0.0885923798823788,"32":-0.05337286497434804,"33":0.15923307145301968,"34":0.029885374888484997,"35":-0.1587788726237442,"36":0.05696839549041984,"37":0.04049576682540938,"38":0.08557123582291025,"39":0.17865712450531895,"40":0.09867441932170928,"41":-0.1857077895157532,"42":-0.18317910082816424,"43":-0.059985784984484466,"44":0.09279035977157384,"45":-0.12293323631501712,"46":0.1834032008119299,"47":0.10770948371626114,"48":0.03350746812803997,"49":0.020399735227342734,"50":0.06853788360151701,"51":0.0575358221505445,"52":0.10804632388391709,"53":0.02412600785769975,"54":-0.10477699282569755,"55":-0.0560058382965598,"56":0.0431574033175119,"57":0.03069678378316665,"58":0.10412617714361593}},{"sx":1,"sy":1,"depth":59,"w":{"0":-0.2023920129577929,"1":0.23345569656906678,"2":-0.05125796068148675,"3":-0.6714642207934861,"4":0.3613831322321176,"5":-0.15989053186963198,"6":-0.6394011197512027,"7":0.1623825136688339,"8":-0.03509531368923849,"9":-0.6165723372145832,"10":0.4528353588390923,"11":-0.10361573290906978,"12":-0.7266536434350779,"13":0.4163178651338668,"14":0.12697376349463113,"15":-0.43789200127997296,"16":0.17640980271217926,"17":-0.002577742591823336,"18":-0.1859025532675931,"19":0.2938665435715813,"20":0.10293943183164762,"21":-0.29491328705809267,"22":0.47956876200226023,"23":-0.10958750636782678,"24":-0.27622452803173364,"25":0.1366877142674193,"26":0.19664369136322973,"27":-0.6400864853224433,"28":0.16339703346148118,"29":-0.206355241631851,"30":-0.31933927125689127,"31":-0.234289799444667,"32":0.2939712720965055,"33":-0.6000860801431914,"34":-0.20625643585872402,"35":0.04436338280798763,"36":-0.3590089465716284,"37":-0.30785742828669327,"38":0.3513128999334395,"39":-0.31564954936958173,"40":-0.17437321700838246,"41":0.11790622340426118,"42":-0.39158618087329305,"43":-0.0640203935613981,"44":0.11769686939683609,"45":-0.30414626227070807,"46":-0.3037414919024851,"47":-0.05156427265893313,"48":-0.3970510025218706,"49":-0.3459934966389143,"50":0.07853253556586794,"51":-0.2545485321569693,"52":-0.0374845575169832,"53":0.10159572042637566,"54":0.17118401079542772,"55":-0.06157686928053737,"56":0.35024994940064597,"57":0.20710859548481808,"58":0.17758769755241705}},{"sx":1,"sy":1,"depth":59,"w":{"0":-0.02586833154855352,"1":0.059171284734419155,"2":0.08027209052975423,"3":-0.2448862987322702,"4":-0.10396265386927506,"5":0.04468082849297529,"6":-0.0041880668118235475,"7":-0.022258547610857618,"8":-0.2204887783627019,"9":0.09633329983823447,"10":-0.19098558591845685,"11":0.0710673586319126,"12":0.03680030511581303,"13":-0.32781263120381937,"14":0.042825807217471215,"15":0.002922320504955755,"16":0.058598566069202364,"17":0.035241718920836836,"18":0.01773913323673301,"19":-0.20084865994832338,"20":-0.07010107284446576,"21":-0.08377058995001753,"22":0.16092934640665443,"23":-0.1431164239133687,"24":-0.0347001616651823,"25":-0.03738641709527408,"26":0.09508206708385372,"27":-0.12657513378153187,"28":-0.07286404430052006,"29":-0.09158056953046037,"30":-0.21112864194664205,"31":-0.29548319189731864,"32":-0.07601123512139216,"33":-0.03257103553656206,"34":0.0075650782025332855,"35":0.002583594702204935,"36":0.10411820089753172,"37":0.12837637567698937,"38":0.15798123393421426,"39":0.010149232940803507,"40":0.07683757495276841,"41":0.020441792676921266,"42":0.2570690935900902,"43":-0.158860825241021,"44":-0.01495615636899976,"45":-0.00779791895348721,"46":0.011042479246921273,"47":-0.15101705659837641,"48":-0.01401885951333865,"49":-0.26687996057692315,"50":0.05214488321694823,"51":-0.26501314541626725,"52":0.20797005855143888,"53":-0.04226901075242367,"54":-0.09846882862253821,"55":-0.2339241389616603,"56":0.15470881741045595,"57":0.0009943297048987535,"58":-0.0660192331501982}},{"sx":1,"sy":1,"depth":59,"w":{"0":0.0030243434104756575,"1":0.09334172311447168,"2":-0.06812944571893448,"3":0.37011333856936324,"4":0.09943284887890486,"5":0.20689965842697364,"6":0.24498849946982704,"7":0.2318203523014733,"8":-0.21336754684979192,"9":0.0899620419149516,"10":-0.02543472520803632,"11":-0.11437775096348225,"12":0.15747312043083295,"13":-0.043785999355820324,"14":0.15126821045425543,"15":0.16795722190754858,"16":0.1362840693665821,"17":-0.07427725045200613,"18":-0.06542017443108177,"19":-0.13253893699878533,"20":-0.18474273612991504,"21":-0.011513653840312584,"22":0.01257104305873021,"23":-0.1662518624605886,"24":0.0947370507701204,"25":0.057679441180159045,"26":-0.015811761251114585,"27":-0.19603847396500204,"28":-0.03769022008226283,"29":-0.08818207213508651,"30":0.0061771616290167836,"31":0.04338962649297188,"32":0.08184008418788967,"33":0.021928192776059438,"34":-0.1924668006540033,"35":0.09497842282395338,"36":-0.0814466153231847,"37":0.054882385465560124,"38":0.19005066751603433,"39":0.06622305032215156,"40":-0.10552479102608452,"41":0.08802103330412582,"42":0.07845747622824696,"43":0.0411502009960765,"44":0.06373631391691277,"45":0.01879293274580159,"46":-0.023803864050788104,"47":0.04423960761103936,"48":0.07790893263748713,"49":0.03523930636609898,"50":-0.05581445313501387,"51":0.022861353450679127,"52":-0.0782837054226253,"53":-0.06672787596214758,"54":-0.10091407199782537,"55":-0.08743834397783325,"56":-0.06315606497826844,"57":-0.07134602807929508,"58":-0.08541601596541201}},{"sx":1,"sy":1,"depth":59,"w":{"0":1.0865509610496218,"1":-0.3388426727547575,"2":-0.06379127185122176,"3":0.830440098278811,"4":-0.43360932313831846,"5":-0.1478381999317496,"6":1.1747352161160582,"7":-0.3902198295475137,"8":0.21400141156528188,"9":1.339917007653436,"10":-0.5487937591165164,"11":-0.1768220052430568,"12":1.08991544695393,"13":-0.33110905579616645,"14":0.02922302579716372,"15":0.9484891035202947,"16":-0.6939708162390583,"17":0.08330606026747539,"18":0.9755563625291588,"19":-0.38422161081215955,"20":-0.05752704584878629,"21":0.685630482791155,"22":-0.4175258748293717,"23":0.19464464835239137,"24":0.6969633426609266,"25":-0.35001558491166307,"26":-0.22751081187477168,"27":0.9386654040467519,"28":0.655551198467461,"29":-0.30143374405123563,"30":0.9291982106625064,"31":0.5802979942536654,"32":-0.12258446627317114,"33":1.1430820127041268,"34":0.6642632925861086,"35":0.09895890777721794,"36":1.2839144238985905,"37":0.4509476547881309,"38":0.008318786987286853,"39":1.0194803542321214,"40":0.5276025959871707,"41":0.01752254273544273,"42":0.714168625895825,"43":0.8430629844871259,"44":-0.034198799994580656,"45":0.8085127148411729,"46":0.6320141832452032,"47":-0.0847162060909652,"48":0.7976231663439928,"49":0.6824801064334073,"50":-0.05222245495781181,"51":0.6969303194392772,"52":0.5532937214161703,"53":-0.03510938758639769,"54":-0.44117832276567265,"55":-0.2159301388272139,"56":-0.4251141632979324,"57":-0.4621952997302734,"58":-0.43733354880251735}},{"sx":1,"sy":1,"depth":59,"w":{"0":0.1352044702360915,"1":0.11018512394678812,"2":0.14111021239995147,"3":-0.1298326967875759,"4":0.058730855023292686,"5":0.033257011303739384,"6":0.22303338839795875,"7":-0.05899385402358456,"8":-0.15055517776214047,"9":0.09824567069531262,"10":-0.05466856400680042,"11":-0.11379388863690344,"12":0.08571688192632324,"13":0.07888621380030718,"14":0.0537463765656355,"15":-0.023244684907465615,"16":-0.19040103138573825,"17":0.19096477184833838,"18":-0.046661354601721064,"19":-0.18451864977477042,"20":-0.011647151146510111,"21":0.30020808831533574,"22":-0.11287407084351464,"23":0.09597611633426913,"24":-0.1861858849524582,"25":-0.10895199440420716,"26":0.04535528254594127,"27":-0.14520579240240925,"28":0.05687599315560971,"29":-0.12584347381036126,"30":0.092923756187905,"31":-0.06270245413813096,"32":0.1791582523081948,"33":0.1273358439761428,"34":-0.20149439708691044,"35":0.0252679967004169,"36":0.14425845517827351,"37":0.009859878689723565,"38":-0.10635008932745695,"39":0.03071522182708362,"40":-0.20018380732927357,"41":0.01095366827929214,"42":-0.027031100993950546,"43":-0.17270515254803884,"44":0.11272453388088667,"45":0.1432316535623032,"46":0.13337308488677543,"47":-0.023477192552941863,"48":0.31452610678235515,"49":-0.1602964214698483,"50":-0.031299879980876105,"51":0.06329229189340758,"52":0.0979291511351723,"53":0.2137036393052244,"54":-0.04095251626534006,"55":0.01960339489122511,"56":-0.1138771587318377,"57":-0.06933952996832925,"58":0.09331393632533619}},{"sx":1,"sy":1,"depth":59,"w":{"0":-0.04365251553866236,"1":0.1390028839967546,"2":0.030672294279289455,"3":-0.09247514928222375,"4":-0.17425149504580562,"5":0.13419078948545168,"6":0.04555548135827299,"7":0.2651442178556514,"8":0.12371358567118518,"9":0.04489800564262831,"10":-0.051872063164622645,"11":0.0500599662060542,"12":-0.10936156825976345,"13":0.0365373830788489,"14":-0.07495955906220822,"15":-0.12204236744752808,"16":0.009765482654677717,"17":-0.003974971626071866,"18":-0.04388566502481425,"19":-0.15015966472427852,"20":-0.012069312296212671,"21":0.014481806989571853,"22":0.07117480111537866,"23":-0.12306691423345875,"24":0.0050520859106789745,"25":0.07933107417951148,"26":0.027363652486190767,"27":-0.15768503130388797,"28":-0.3550762508241937,"29":0.0926393242185198,"30":-0.1774627873489702,"31":-0.024204242299170318,"32":-0.22027407919895595,"33":0.08620930381590139,"34":0.16329702384123757,"35":-0.028993766031434266,"36":0.18699325037211054,"37":-0.1802593093743352,"38":0.11112479462994325,"39":-0.17558139815949986,"40":0.04192666674152413,"41":0.02462861607484348,"42":-0.23998513449336123,"43":0.026110539776449487,"44":0.0743030608336537,"45":0.1304121423249531,"46":-0.134702367646236,"47":0.17091099816671773,"48":-0.042871293800705444,"49":-0.23967453772963224,"50":-0.00942197743641766,"51":0.05380182800201133,"52":-0.23142819295576844,"53":-0.22380675467369995,"54":-0.12420327610915043,"55":-0.2664000441367605,"56":-0.17198259226619889,"57":0.07048408931767666,"58":0.09179642531606057}},{"sx":1,"sy":1,"depth":59,"w":{"0":0.13830326313521377,"1":-0.013553352215852554,"2":-0.08035820983670183,"3":-0.19868762643485352,"4":-0.19162162342989297,"5":0.07804041025105911,"6":0.06232695134373521,"7":-0.15122102886732192,"8":0.05160649973671642,"9":0.17229459890846982,"10":-0.12858830365068344,"11":-0.007954098513849013,"12":-0.20280976571791862,"13":0.30043096016432036,"14":0.002010725726966407,"15":-0.25026731862167534,"16":-0.20300004009560246,"17":0.006503324007319271,"18":-0.38331041122124626,"19":0.07499001459021751,"20":0.11895613530737358,"21":-0.23058176645882286,"22":0.16251772174586854,"23":0.09781240734348559,"24":0.09938533417083982,"25":0.0759087964826296,"26":0.03498049568794337,"27":0.04078832996719639,"28":-0.0930456891058893,"29":0.07343987136352584,"30":-0.01373875165504753,"31":-0.14135664501514858,"32":-0.09782212230490481,"33":-0.024390682670001843,"34":-0.12807700426001398,"35":0.005045898840195912,"36":-0.042663291911199865,"37":-0.0028774900235830608,"38":-0.1411531862546315,"39":-0.2006687958410366,"40":-0.23488831115231118,"41":-0.0795666368517946,"42":-0.13135082841630671,"43":0.10243481952741453,"44":-0.23743815864293516,"45":0.0058478117322499365,"46":-0.0022090811199699757,"47":-0.13897293233821287,"48":-0.09250877196760023,"49":0.08943876672659515,"50":-0.0039503279992084825,"51":-0.19864604141290543,"52":-0.05045257048823513,"53":-0.20704372610145033,"54":0.07474173224316533,"55":0.16971197379912525,"56":0.0005211805191852271,"57":0.1659385239360432,"58":0.00013039336781105066}},{"sx":1,"sy":1,"depth":59,"w":{"0":0.1876204633661373,"1":-0.04627301218758559,"2":-0.26517768872575703,"3":0.04463168059571349,"4":0.07802141974945691,"5":-0.0013756976657708204,"6":-0.15901209994360124,"7":0.24430620118389157,"8":0.2677438026600356,"9":-0.0037719225025849646,"10":0.14907743883371122,"11":-0.13100253868440412,"12":-0.01315641485811716,"13":-0.1320452773894179,"14":0.14604678326847645,"15":0.054111940939886034,"16":-0.043225514787319834,"17":0.018778470268881523,"18":-0.032094248889324335,"19":-0.13055398094677337,"20":-0.23969789922380122,"21":0.026332002539688634,"22":-0.2881092399588712,"23":-0.18788819040304905,"24":0.027467996730187186,"25":-0.10313493217776484,"26":0.0055012564197351455,"27":0.004964791266881166,"28":0.05631038745540506,"29":-0.07231838727079326,"30":0.16499208108590788,"31":-0.0013408177293522956,"32":0.09787543555335416,"33":0.029983804248306475,"34":-0.081772051600807,"35":-0.10397438818623574,"36":-0.04165657147567727,"37":0.1421811729531057,"38":-0.07808935111653646,"39":0.10223977156023932,"40":0.4547805782609042,"41":0.006241790005811404,"42":-0.05037822830009809,"43":-0.030613209292457207,"44":-0.03423175094527536,"45":-0.08717609153192814,"46":0.007111681147912564,"47":0.12353789844549126,"48":0.1373454546148776,"49":-0.09914731479332238,"50":-0.03222385108969724,"51":-0.03369006816262364,"52":0.18886253934001296,"53":-0.12770537480785318,"54":-0.11152162655286935,"55":-0.13266223170615946,"56":-0.015903180772318788,"57":-0.18257223282397797,"58":-0.04399137928923601}},{"sx":1,"sy":1,"depth":59,"w":{"0":0.1123872094406132,"1":0.014115617709080682,"2":-0.049619708968842303,"3":0.1363972109111043,"4":0.23029260616689448,"5":0.13481074611408433,"6":0.16469381733731278,"7":-0.040799099572273866,"8":0.011307059793481969,"9":0.08180989265193542,"10":0.006717947803864122,"11":-0.04181339347165042,"12":0.2461678283901853,"13":-0.14009890015099213,"14":0.182759839686388,"15":0.33696435096761573,"16":0.006398875429181555,"17":0.16102402011878894,"18":0.31904657097779476,"19":-0.04562055206156976,"20":-0.11698391169916086,"21":0.21346193536463895,"22":0.1650866295711139,"23":-0.14433008948375345,"24":0.18601680769858175,"25":0.2260344484313018,"26":-0.21196948032911886,"27":-0.12287846615103869,"28":0.126853267768761,"29":0.138221258711068,"30":0.1394499747138575,"31":-0.29986831474193865,"32":-0.054398371822336956,"33":0.01129497952863015,"34":-0.1101775655651852,"35":0.1667706386273294,"36":-0.056664746015452856,"37":-0.024099991782016796,"38":0.135124601968739,"39":0.14267249258034348,"40":-0.08537600226834763,"41":0.04267053345583999,"42":0.19429394907723788,"43":0.06701196438651304,"44":0.01843257534756011,"45":-0.08507969388500664,"46":-0.042566513631986755,"47":0.09451401269761447,"48":0.22740274563205967,"49":-0.04910257135933058,"50":-0.050729716450377445,"51":0.12624290363277513,"52":-0.005560712615229078,"53":0.10872243105575656,"54":-0.027034801476520553,"55":-0.06141305149969848,"56":-0.012349471259934585,"57":-0.19573397009714263,"58":-0.048673981463334445}},{"sx":1,"sy":1,"depth":59,"w":{"0":0.10849079899646558,"1":0.40504321360495477,"2":0.06676339380024358,"3":-0.08291842564618636,"4":0.1782339387557526,"5":0.1591699041878006,"6":-0.1347569304009053,"7":0.21729055889606722,"8":-0.0046064386831805425,"9":-0.1917733937211202,"10":0.06882457569765993,"11":-0.02425635376693288,"12":-0.38885225241753224,"13":0.0024324235689964415,"14":-0.07523743556048054,"15":-0.13954070810017116,"16":0.09611297932405063,"17":-0.21241439319188313,"18":-0.10046756591716116,"19":0.05061728004244274,"20":-0.07562397931718963,"21":-0.35473980561368024,"22":0.14254840011145498,"23":-0.09690412304303837,"24":0.14351497311030362,"25":0.0716127055535864,"26":-0.1551639231409793,"27":-0.044265583859786864,"28":0.17001844197598054,"29":-0.0776207210148679,"30":-0.15721099791981202,"31":0.22157218533084114,"32":-0.040718717819696826,"33":-0.03442731616818664,"34":-0.24633146039685216,"35":0.021587576886467123,"36":-0.317808290355124,"37":0.09270928895617776,"38":0.1084408396247674,"39":-0.21028149942952123,"40":-0.0969586247436172,"41":0.10007086598585159,"42":-0.2154119525740978,"43":-0.24950632115274313,"44":0.17425997338977162,"45":-0.07845127773817645,"46":-0.08742886065837847,"47":0.18909555557770205,"48":-0.0881444209742195,"49":0.07248478009900462,"50":-0.19909646021801022,"51":-0.17843683681800102,"52":-0.018514985791183766,"53":-0.18557856311640525,"54":-0.22859816813266137,"55":0.25168164713660973,"56":-0.1423793120802671,"57":0.13947045696523336,"58":-0.11293673622397711}},{"sx":1,"sy":1,"depth":59,"w":{"0":0.20133281765021568,"1":-0.03086880087306013,"2":-0.2075255902489437,"3":0.21734165059031388,"4":-0.07034472915498342,"5":0.2796939297638394,"6":0.2453199128204017,"7":-0.16910065319110432,"8":0.05626854945536543,"9":0.19573996805414587,"10":0.06876810260902007,"11":-0.04428838659882241,"12":0.3240425912709591,"13":-0.15908183456285419,"14":-0.07594874961056014,"15":0.08447978882522005,"16":-0.07523221611012759,"17":0.18609872783923634,"18":0.2340902253374007,"19":-0.06421812113995878,"20":-0.0022704163462943,"21":0.04722423416729428,"22":0.2099645218909012,"23":-0.05909965999389427,"24":0.3886887437006905,"25":0.09066896149316052,"26":0.051035998533385314,"27":0.460156362441362,"28":0.28469558996109107,"29":0.08862831223302106,"30":0.30951153316114566,"31":0.23306267883700632,"32":0.016125878875050608,"33":0.027035322247362426,"34":0.1518628334366506,"35":0.16464286436174347,"36":0.28834520263455526,"37":0.06956440878017915,"38":-0.13166166403938587,"39":0.28966332758149155,"40":0.2708809195739036,"41":-0.2137311765257377,"42":0.24697795841292933,"43":-0.00033901409404412053,"44":-0.12382478544509495,"45":0.04942906757138346,"46":0.10341321845992373,"47":0.17557235828816936,"48":0.27648470687963383,"49":0.32634328503371196,"50":0.02435536612814968,"51":-0.012233642194759023,"52":-0.12129781073118406,"53":-0.014720953441224016,"54":-0.20107629468562607,"55":-0.13822512905832274,"56":-0.12848241213498068,"57":-0.19825625418537723,"58":-0.20237263929238938}},{"sx":1,"sy":1,"depth":59,"w":{"0":0.10610071264475378,"1":0.2678878936612544,"2":-0.1265922503048582,"3":0.08557958612391385,"4":-0.21932135730413882,"5":-0.11898164358681054,"6":-0.12115623251693104,"7":-0.10736593497975205,"8":-0.12960359527445126,"9":0.15985125179133058,"10":-0.006625734673684559,"11":0.09072045596827583,"12":0.19842222884137037,"13":-0.2415597946741851,"14":0.028077146389808523,"15":-0.007070415988765988,"16":-0.15629264562921158,"17":0.19431487743434842,"18":-0.12741634412748476,"19":0.07419528431973522,"20":0.0641582380366017,"21":-0.1372305236805167,"22":-0.20596657332194446,"23":0.2289234846166161,"24":0.02238885877132111,"25":0.061920313485913335,"26":0.05179152579013948,"27":0.16923576990171937,"28":0.044521357085837016,"29":0.26624655278135884,"30":-0.11246424775265763,"31":-0.08780474175753665,"32":-0.0641364777921114,"33":-0.2918739928639091,"34":-0.16559501377068145,"35":-0.279345410624483,"36":-0.07980552722647051,"37":-0.14859200421823798,"38":-0.02528285666078901,"39":-0.227000230733736,"40":-0.03869337799846789,"41":0.3612285383781068,"42":0.08673534176442085,"43":-0.009376580895225067,"44":-0.00620493053931586,"45":-0.03386645574986295,"46":-0.1249887988128859,"47":-0.0722017695785588,"48":-0.1259935347441034,"49":-0.030751761005740487,"50":0.11160272107172153,"51":-0.08157831556357456,"52":0.05264904691091154,"53":-0.03168557517140791,"54":0.09930532607597733,"55":0.04225343575485968,"56":0.021012837248121287,"57":-0.06424114612328329,"58":-0.1332976155213378}},{"sx":1,"sy":1,"depth":59,"w":{"0":-0.1388719970786538,"1":0.12524929684827407,"2":-0.07434843925378197,"3":-0.17724045266725358,"4":-0.0324239127849542,"5":-0.0828098668170384,"6":-0.08396891066408153,"7":0.16088827799040736,"8":0.01501761888156225,"9":-0.070002818620354,"10":0.12560072029902816,"11":0.013627202926062908,"12":-0.3460069901565753,"13":0.12563455658520684,"14":0.05324930497886089,"15":-0.17233099389362339,"16":0.10913242932733623,"17":-0.11415719630979301,"18":0.0435336343841874,"19":0.1897279508787695,"20":0.13321425150336846,"21":-0.06506544338834007,"22":0.2582059559164668,"23":0.11633220398748707,"24":-0.15344483394583863,"25":0.2650140898438566,"26":-0.0782111000850461,"27":-0.11634554621037545,"28":-0.35273272037708764,"29":-0.18455959824414184,"30":0.019833102382778536,"31":0.13020648062805154,"32":-0.086841999589749,"33":0.07846233317442397,"34":-0.3666026867863382,"35":0.11238443232882833,"36":-0.07317982609421839,"37":-0.19094357834922504,"38":0.17020935380226382,"39":-0.31243769753724526,"40":-0.10292065868143767,"41":0.10211789437944224,"42":-0.4679444467067913,"43":-0.15205317807297625,"44":-0.02865156189371159,"45":-0.14797770652157438,"46":0.00972712828391738,"47":0.00929112531438659,"48":-0.1567893626182006,"49":0.1664445440892392,"50":-0.11220160290955611,"51":-0.4105375325000865,"52":0.15632132260233167,"53":-0.007040783317936926,"54":-0.11565454623805192,"55":0.26902495608658056,"56":-0.11435330528165441,"57":0.0574197883719735,"58":0.14414898782267854}},{"sx":1,"sy":1,"depth":59,"w":{"0":0.01965367140688276,"1":-0.13699969430895875,"2":0.021196252175819455,"3":0.1011383263845709,"4":0.04573979332878976,"5":0.27472252627992405,"6":-0.2408897332706214,"7":0.051593013180850425,"8":0.005370218339790243,"9":-0.38880318207902237,"10":-0.19938036718075072,"11":-0.10034039333575344,"12":-0.012012141507272457,"13":-0.24504061881046907,"14":-0.047570730733205585,"15":-0.08018421560180626,"16":0.00662180676593097,"17":-0.14415838745901052,"18":-0.19799875291010224,"19":-0.008114652985819797,"20":-0.07174539906034225,"21":0.15914695843361187,"22":-0.006125197582112744,"23":0.17198548752621112,"24":0.12072408546402946,"25":0.0814773390303067,"26":-0.04660716555939597,"27":-0.20686842987384757,"28":-0.10154463195563407,"29":-0.06847617205359822,"30":0.022648750576360014,"31":-0.09226900268649897,"32":-0.2090313768163351,"33":0.043796275068235975,"34":0.028381034887652343,"35":-0.052740092712553414,"36":0.03970169852048602,"37":0.17581253514349085,"38":0.01624900572862998,"39":-0.044591812630126376,"40":0.30378889417783705,"41":0.046948759539814595,"42":-0.39302478660345624,"43":0.11012076432294386,"44":-0.021902624039855167,"45":0.021812822966594012,"46":-0.02621082403810003,"47":0.07956801485267258,"48":-0.22143296155551495,"49":0.05514273613236414,"50":0.469810630476716,"51":0.00781892418951123,"52":-0.07208425202692438,"53":-0.06376807588073542,"54":0.10601026417392626,"55":-0.13431764096450383,"56":-0.08764317037695242,"57":0.04126529853982821,"58":0.15436589297707037}},{"sx":1,"sy":1,"depth":59,"w":{"0":0.013017577144773303,"1":0.21660437297069662,"2":-0.13820798746355833,"3":0.08867315053608144,"4":-0.18659846754716747,"5":0.02924749893004644,"6":-0.03823458922860075,"7":0.28085477279340104,"8":-0.029334906321021797,"9":0.08448803798189246,"10":-0.24011579590215937,"11":0.3006124511487644,"12":0.0562691430736175,"13":-0.1112938400459881,"14":-0.0915238504540693,"15":-0.036556200854359955,"16":0.0441397455486368,"17":0.14410428185418891,"18":0.07070558541286676,"19":-0.14226388349465693,"20":-0.014211405497501432,"21":-0.10046143534652772,"22":0.2298803134681416,"23":-0.01907095923808796,"24":-0.17116651673828745,"25":0.0004506417027571103,"26":-0.13819808260857214,"27":0.016505826614341048,"28":-0.2913104773804128,"29":-0.1563601607462544,"30":0.16519964551958566,"31":-0.2250973287080855,"32":0.062419936585410785,"33":0.31823037448584013,"34":0.13497215696144396,"35":-0.06077427345871549,"36":0.11955907193678364,"37":0.04586972599736801,"38":-0.2147654483807844,"39":0.03653018984563517,"40":0.10241384465722746,"41":0.06394001831344831,"42":0.10618543464785085,"43":0.2660156072490156,"44":-0.0018345994291065744,"45":-0.14463586138972304,"46":0.2821388724166449,"47":0.04918386632070139,"48":-0.03898632029076225,"49":0.02781896260833276,"50":0.04294422314798209,"51":0.03477019880224476,"52":0.10633304785981425,"53":0.15204914341423953,"54":-0.01570847795071805,"55":-0.19739073317463537,"56":0.017056259106897374,"57":-0.07410556374277891,"58":-0.07483285779611254}},{"sx":1,"sy":1,"depth":59,"w":{"0":0.20551879570775308,"1":0.21749227720644046,"2":-0.03698236426522905,"3":0.03316551635594736,"4":-0.03243087249540891,"5":-0.3260868065442095,"6":-0.056786855970101295,"7":-0.11408939540089562,"8":0.2327041996730973,"9":-0.04784021710718745,"10":-0.015415945127375453,"11":-0.17082752361183698,"12":0.05697897537466087,"13":-0.035636269009075544,"14":-0.2163509846189688,"15":-0.1217315083437314,"16":0.032062205601262855,"17":-0.144360214758504,"18":0.09240710058903213,"19":0.06149218345764431,"20":0.19906610966205876,"21":-0.19556064460496228,"22":0.1395336016277184,"23":-0.09489070231070006,"24":0.04410293168548607,"25":-0.08055741753361287,"26":-0.027785745179949965,"27":0.19583377664269838,"28":-0.13810060737030208,"29":-0.21075525394956876,"30":0.28960269434503466,"31":0.01746316802371338,"32":0.1411027731339028,"33":-0.042739701186254926,"34":-0.06589074672638064,"35":-0.15503672782344538,"36":-0.020853513170634438,"37":-0.03970922502079781,"38":-0.12952248269415423,"39":-0.057649334940982726,"40":-0.07695680691576329,"41":0.22174213262392323,"42":0.06866796876271783,"43":-0.11732728950391189,"44":-0.12472639841380842,"45":0.014141539181804679,"46":-0.013525554080089194,"47":0.0962396308513377,"48":0.2989894864815078,"49":0.022882317359638863,"50":0.052415890408161254,"51":-0.2986741337804718,"52":0.20132811200433284,"53":-0.3049942425561705,"54":-0.01974485017019584,"55":0.05248171848690673,"56":0.11968376075143015,"57":-0.0839863580172197,"58":-0.13450886908494822}},{"sx":1,"sy":1,"depth":59,"w":{"0":-0.3141533161745958,"1":-0.08533864029237236,"2":0.11434504587592378,"3":-0.3118192834947617,"4":0.2869502302032833,"5":-0.08377351741317193,"6":-0.39894002529826844,"7":0.16332042885961864,"8":-0.06454017728656927,"9":-0.5101044151922192,"10":0.17579434563724,"11":0.08940663529002975,"12":-0.4724898613647404,"13":0.09760058667016039,"14":-0.10163505992593277,"15":-0.3057324022243802,"16":0.32060493438363946,"17":0.08478810951543898,"18":-0.27577403018433083,"19":0.3814555118395385,"20":-0.12687517093545472,"21":-0.30529244933118027,"22":-0.03706140140626252,"23":-0.17808121766998727,"24":0.020771529288840827,"25":0.16612709873230977,"26":0.07290258797871346,"27":-0.35374339464536597,"28":-0.20043401352857332,"29":0.10604072359222348,"30":-0.24753108947581914,"31":-0.18157554489318875,"32":0.035903145133880536,"33":-0.39398308047737945,"34":-0.1059045795676021,"35":0.038722826795887996,"36":-0.44141470103470504,"37":-0.21157779921039724,"38":0.043445650185499105,"39":-0.2826942463056979,"40":-0.1763944668982858,"41":0.054205828887355464,"42":0.03363892278940644,"43":0.03921184569534791,"44":-0.1717426289304902,"45":-0.12984716263091906,"46":0.11439787636762526,"47":0.08794817694622722,"48":-0.36344166722008686,"49":0.04400796155017119,"50":0.009464208243630654,"51":-0.19077307759097428,"52":-0.22999232819139925,"53":0.13534715773251677,"54":0.08392086365850186,"55":0.1481081932495507,"56":0.07370913698387555,"57":-0.031173815704361146,"58":0.13745365073014082}},{"sx":1,"sy":1,"depth":59,"w":{"0":-0.3911546409236059,"1":0.3601042437294573,"2":0.0929263394190622,"3":-0.42746991907334486,"4":0.38111105129880374,"5":0.004075654419373339,"6":-0.5699957316365221,"7":0.29225216766964546,"8":-0.0031011206244327743,"9":-0.5292711135579499,"10":0.6098133189222958,"11":-0.07594503681837028,"12":-0.3030280272163053,"13":0.4041534823942613,"14":-0.18216168273752306,"15":-0.17869191365193765,"16":0.10628670170816225,"17":-0.00893375438178016,"18":-0.605131542385466,"19":0.3557405696942705,"20":0.05550552443023481,"21":-0.5177740675796836,"22":0.3809885676087617,"23":0.020012522967039845,"24":-0.1868117766968407,"25":0.45361593812044826,"26":-0.07678279283522932,"27":-0.49590117041033155,"28":-0.2807705023776609,"29":0.029760889413478785,"30":-0.2532075310078988,"31":-0.036370516385399024,"32":0.026459086703484493,"33":-0.5593158106591612,"34":-0.08904410971440559,"35":0.20248129261543057,"36":-0.41882516930523683,"37":-0.20967700640494402,"38":-0.09845255280943137,"39":-0.31334690630227174,"40":-0.14248332239542844,"41":0.07750950511633417,"42":-0.5631526723515731,"43":-0.10531086117388809,"44":-0.053758388947522294,"45":-0.26303913552975144,"46":-0.20756253565099123,"47":-0.021942900879466862,"48":-0.3098232773484687,"49":0.02205787574871443,"50":0.010639183173881336,"51":-0.49201716129218814,"52":0.016734692162480677,"53":0.058030479914074305,"54":0.28975305825512654,"55":-0.07333002530460785,"56":0.32686133944581985,"57":0.3277241444785896,"58":0.43649937996657395}},{"sx":1,"sy":1,"depth":59,"w":{"0":-0.36023007715420213,"1":0.23084031676607664,"2":0.027588585660032566,"3":-0.5650559857129902,"4":0.0036276335347784805,"5":-0.1716625883569208,"6":-0.3183654182867189,"7":0.20620125848430187,"8":-0.1160441821629622,"9":-0.6334100256464835,"10":0.3312784317512513,"11":0.3411723654614459,"12":-0.5360445554586355,"13":0.31065713139602635,"14":0.14639784146011023,"15":-0.23273890004439854,"16":0.10654938019698515,"17":0.1942193106902376,"18":-0.4460659368000343,"19":0.07526890297437547,"20":0.07080494079899168,"21":-0.3240871558247358,"22":0.3068826567213021,"23":-0.23937338321506468,"24":-0.11281860079662746,"25":0.31860928542387873,"26":0.16379894117239005,"27":-0.34258561948049837,"28":-0.25856151457868626,"29":0.2437506720043852,"30":-0.28325138635154046,"31":-0.3861370243222053,"32":0.04493567856403883,"33":-0.3142398665191291,"34":-0.06752042152840206,"35":0.1027477867203805,"36":-0.3290541272189452,"37":-0.016427498910115763,"38":0.06527600346675048,"39":-0.5639872984242054,"40":-0.062437296884137704,"41":0.1116439451715874,"42":-0.3516036063348461,"43":-0.15319673228569208,"44":0.16039469246936228,"45":-0.4061186263246167,"46":-0.3380032693441628,"47":-0.16374419001335863,"48":-0.4672189480615499,"49":-0.11289007255073412,"50":0.06707895603587237,"51":-0.27200649496907464,"52":-0.1761968624156035,"53":0.22213088213270898,"54":0.2997672935863612,"55":0.4554808554018887,"56":0.16684818610806856,"57":0.3887536997827302,"58":-0.13408335722510553}},{"sx":1,"sy":1,"depth":59,"w":{"0":-0.2882327296290558,"1":0.2431118122860367,"2":0.1104826079234641,"3":-0.3402166819973097,"4":0.3065463926966725,"5":0.0030043608265110395,"6":-0.32515922595462965,"7":0.33952713108596194,"8":-0.14491999660738816,"9":-0.3839963951021077,"10":-0.0011094736026548474,"11":-0.2000797786868342,"12":-0.39503120708290057,"13":0.2546781343399335,"14":0.04416002891865574,"15":-0.21085882376416698,"16":0.10608141479688919,"17":-0.04823902010293151,"18":-0.1754624343308799,"19":0.20787502456955165,"20":-0.004560475952905628,"21":-0.15892164577828674,"22":0.3814348738675424,"23":0.2032610850573927,"24":-0.03212913650301949,"25":0.37874113129017045,"26":0.05418086651179396,"27":-0.23149011124024782,"28":-0.0004496814159761906,"29":0.0232479203587978,"30":-0.2933776770296276,"31":-0.17064586331479756,"32":-0.16256459529710365,"33":-0.4925661501754003,"34":-0.2816640871955259,"35":-0.039078371008055064,"36":-0.2887951880618641,"37":0.00934820796409081,"38":-0.010465964002594436,"39":-0.01666204184255945,"40":-0.06386782976994167,"41":-0.23819127644083005,"42":-0.3367791306582674,"43":-0.2738657018794493,"44":0.06312444079312529,"45":-0.17547063254492307,"46":-0.07511122620296036,"47":0.07277670580147427,"48":-0.3060773798990049,"49":-0.2141668121004764,"50":-0.08885879080036019,"51":-0.08757320019856919,"52":-0.23037122226236612,"53":-0.029472630098124272,"54":0.25797694050548703,"55":0.3416951957882505,"56":0.107495768676087,"57":0.2726082490258205,"58":-0.23242279992618972}},{"sx":1,"sy":1,"depth":59,"w":{"0":-0.20815665777165662,"1":0.10965538427525437,"2":0.11827464232633911,"3":-0.32482656908152324,"4":-0.06396403677553998,"5":-0.1371868447814671,"6":-0.14702582068653142,"7":-0.0064143335599930185,"8":0.11730069213631132,"9":0.1005628141918362,"10":0.23021142730398178,"11":-0.026760848670688956,"12":-0.11165841734196907,"13":0.16868356743163154,"14":-0.07837307982509549,"15":-0.08085826943399729,"16":0.1457357690507815,"17":-0.011040491380526839,"18":0.061019001283328204,"19":-0.2132301334208764,"20":0.15477403518584354,"21":-0.1164137631654779,"22":0.12500948508905604,"23":0.2743321677901894,"24":-0.018100732167623017,"25":-0.07262942628795073,"26":0.10308351701881355,"27":0.11841130464210108,"28":0.18329943807116,"29":-0.21519265785878885,"30":0.06375698489205621,"31":0.17478911092844246,"32":0.013502569936926574,"33":-0.04096169113317001,"34":-0.029517188559011292,"35":-0.062040208540178166,"36":0.10192748850553193,"37":-0.23886437898484933,"38":-0.02889973343691595,"39":-0.04659215625391206,"40":0.15457173030949495,"41":-0.11077203705615922,"42":0.006445919531281623,"43":-0.3943795881976211,"44":-0.0861902987900618,"45":-0.13904863136983486,"46":0.14096284462820827,"47":0.024258241833025603,"48":-0.009540609249192504,"49":0.10163614267902979,"50":-0.2330726667491296,"51":0.0328178836633441,"52":-0.17413866413535461,"53":0.0949420850819013,"54":0.06527167500082602,"55":0.14664506025903706,"56":-0.02540541251681674,"57":-0.08403204303476858,"58":0.04830918611753997}},{"sx":1,"sy":1,"depth":59,"w":{"0":-0.17341459812345672,"1":-0.03343441925891495,"2":-0.2291222366771388,"3":0.017175070103811273,"4":0.19666337380604126,"5":-0.023417449124292996,"6":0.015007410861632294,"7":0.166376481023202,"8":-0.04422905688956962,"9":-0.08144430582783481,"10":0.18143636148784484,"11":0.15095246838205872,"12":-0.08674370131298521,"13":0.20779230620006617,"14":-0.059028669647321515,"15":-0.09655626887026893,"16":0.06340503353480692,"17":0.042739128168072696,"18":-0.15307991266745422,"19":0.0632704889655733,"20":-0.019025801989319302,"21":-0.080520279705032,"22":-0.23304132272815103,"23":-0.13876621229925598,"24":0.01333691648734177,"25":-0.08905497288496222,"26":-0.011633785513512533,"27":0.1446678654754411,"28":-0.042128156700958264,"29":0.08286882026318726,"30":-0.049136296637456466,"31":0.17515710451915917,"32":0.10623339475689055,"33":0.07763715457562038,"34":-0.051977044079333096,"35":-0.10329115832701595,"36":0.0017499679706498928,"37":-0.1481507367461287,"38":0.08610246791583337,"39":-0.11424486437021303,"40":0.2284202071589197,"41":0.21859241786939343,"42":-0.04105287802412918,"43":-0.002459546858846319,"44":0.07386228937563248,"45":-0.11242174889654218,"46":0.10689308335653673,"47":0.0858766458878315,"48":0.30951253983082094,"49":0.051125401487219585,"50":0.14976310427531198,"51":0.052315797574489904,"52":-0.07483150302641292,"53":0.2276758607618166,"54":-0.3311883201771767,"55":-0.16680078546540908,"56":-0.07778439266472811,"57":-0.04874792928671481,"58":-0.017115048473151855}},{"sx":1,"sy":1,"depth":59,"w":{"0":-0.053527971804002594,"1":0.1915963851169558,"2":0.04779310403417186,"3":-0.18154299917030745,"4":0.08126505461768527,"5":0.02432604775877847,"6":-0.003265745408375379,"7":-0.04300817454568514,"8":0.18665729523494454,"9":0.13457886111181172,"10":-0.06945956166896569,"11":0.06125614740759864,"12":0.013311540456109175,"13":-0.07047577517612585,"14":-0.052776651244023906,"15":-0.06613302535095265,"16":-0.24968266902957628,"17":0.045198373131016586,"18":-0.09887795547874509,"19":-0.196183962456993,"20":-0.034528475594635656,"21":-0.027978474258875247,"22":-0.08204337633368962,"23":-0.21480415082316676,"24":0.12704454479148192,"25":0.22144566534890578,"26":-0.10245290859957351,"27":0.05588201196350165,"28":0.21883457533786532,"29":-0.052594836022170716,"30":-0.12501573739804206,"31":0.17687770746193493,"32":-0.12557571409997498,"33":0.011979698744177212,"34":0.016908433518714842,"35":0.01014143626101819,"36":-0.07071220794104664,"37":0.05687748670709436,"38":-0.07955636517707769,"39":-0.00996718203284029,"40":0.0948737064712858,"41":-0.06964868826715825,"42":-0.022488410913066435,"43":0.12564472493985465,"44":-0.33535780883660254,"45":-0.12274056722386519,"46":0.13980810017473516,"47":0.17306885275271874,"48":-0.12195568385994866,"49":-0.11258215668365404,"50":0.06777275307917845,"51":-0.02633227398605736,"52":0.16144825483074748,"53":-0.006363977885902289,"54":-0.1815433892547556,"55":-0.34576632085104253,"56":-0.0075411840422212545,"57":0.14958524932633344,"58":0.0579378069574947}},{"sx":1,"sy":1,"depth":59,"w":{"0":0.09049802889026601,"1":-0.12564115259669642,"2":-0.13423384899717833,"3":0.3914040489383274,"4":-0.06353676901616306,"5":0.058816916812284965,"6":0.264952202377868,"7":-0.046900525417564294,"8":-0.08224707918288195,"9":0.24039782654478373,"10":0.10209946787825627,"11":-0.22477963373217194,"12":0.10979195608278204,"13":-0.08280163385330563,"14":-0.05239207950724323,"15":0.3151434312787256,"16":-0.025251790818956562,"17":-0.03772264363112757,"18":0.35304905812388043,"19":-0.14000366182485527,"20":-0.2577766647418238,"21":0.13945017581278815,"22":-0.13030419437804555,"23":0.01344236185658126,"24":0.16560528489198953,"25":0.0314285082986634,"26":0.03981723542307796,"27":0.4972377958767926,"28":0.2295423782033245,"29":-0.16039973519129613,"30":0.26220062086229956,"31":0.19969522927112762,"32":0.05634316131137289,"33":0.10984225294057129,"34":0.16585373655023652,"35":-0.13364040064085475,"36":0.41092970187617384,"37":0.1533457395372295,"38":-0.1195474739608448,"39":0.24692401100876843,"40":0.12851210217693482,"41":0.20731194712848455,"42":0.07971960007401634,"43":0.0013523406921591725,"44":-0.02094497029097137,"45":0.133461471689908,"46":0.07630545361648122,"47":-0.0468231521200145,"48":0.22407724375637925,"49":-0.21467965422654647,"50":0.012531136902601015,"51":0.0604142938207933,"52":0.016550601334705244,"53":0.057347767077150606,"54":-0.14031687745974847,"55":-0.0947960954537971,"56":-0.011459232801866724,"57":-0.05059372412712226,"58":-0.013879862472546134}},{"sx":1,"sy":1,"depth":59,"w":{"0":-0.15201718241561407,"1":-0.04177503707182031,"2":0.025054718780402975,"3":-0.10096356389173121,"4":-0.12310124740324965,"5":0.18048536285155586,"6":0.24376433834668418,"7":0.02214300524741306,"8":0.08849068425105447,"9":-0.423956923422485,"10":-0.04749650211328527,"11":-0.11215474893075847,"12":-0.02744271663580117,"13":-0.03364324740605091,"14":0.0020945782811615196,"15":0.09228588164276186,"16":-0.004559160130743463,"17":0.07266808891256755,"18":-0.2079391488385272,"19":0.21553155821896972,"20":0.05107264315704613,"21":0.19197635557526715,"22":-0.10254373293035024,"23":-0.0013075425057023067,"24":-0.04672101068499979,"25":0.1633989247711037,"26":-0.004158134707577545,"27":0.02705596796425331,"28":0.1026176706172003,"29":-0.009285148231269504,"30":0.03779477978342825,"31":0.05315471715050031,"32":0.07224043807894838,"33":-0.17788568514703182,"34":-0.040476715728824005,"35":0.0024868171048026996,"36":-0.13423010070306715,"37":0.1836630398528097,"38":-0.15137610517458175,"39":-0.14539065360150918,"40":0.048955619202669234,"41":-0.010594002125225732,"42":0.043513018406923676,"43":-0.05290280295232593,"44":0.10590116178631673,"45":-0.1520881702795305,"46":0.10399164085038522,"47":0.09238299752465298,"48":-0.17404762057346596,"49":0.14376714398894544,"50":0.1308002286463628,"51":-0.08555498291921558,"52":0.04664824516803868,"53":-0.06874269448665199,"54":0.23311079143778737,"55":-0.17419428753050728,"56":0.10947790544914104,"57":0.09007655357119218,"58":-0.06802462026861193}},{"sx":1,"sy":1,"depth":59,"w":{"0":0.09558666565281627,"1":0.2564399664784008,"2":-0.11889694434578033,"3":-0.08301341573327747,"4":0.022602987802106074,"5":0.19764277895716548,"6":0.32712737448125984,"7":-0.026560193440171003,"8":0.11875665562011285,"9":-0.04256865878148903,"10":-0.11858800779846422,"11":-0.02485130126636845,"12":-0.004390006125996396,"13":-0.1206789980420924,"14":-0.025378417020896354,"15":0.14008742614537956,"16":0.1534217758050265,"17":0.15621711257520046,"18":-0.05433735637556791,"19":-0.0349476113448453,"20":0.03251873248873102,"21":-0.040489635963541715,"22":0.22088534001022753,"23":-0.14889827257429483,"24":-0.06828139733659526,"25":0.12315276378017032,"26":0.20197712938181747,"27":0.1737844901858774,"28":-0.07149411116776501,"29":0.047101801237548035,"30":-0.06930002497024411,"31":0.14107712557336283,"32":-0.0011302272604328367,"33":0.2504818516518734,"34":0.04299223009176192,"35":0.052891675800200974,"36":-0.04907348858830229,"37":-0.19521679044710863,"38":0.03151539198190152,"39":-0.18917706465243006,"40":-0.17265366458220519,"41":-0.061071793509876515,"42":-0.08993815229948934,"43":0.11313160813455032,"44":0.17281211833791682,"45":0.05121426686855152,"46":-0.16018852107381792,"47":-0.019224290072785827,"48":-0.07225480958107107,"49":0.06736898618780315,"50":-0.2159650509169496,"51":0.2303202914863667,"52":0.11496129073488073,"53":-0.10207860218139529,"54":-0.14599575057814954,"55":-0.08914548431099942,"56":-0.14941012652817526,"57":-0.16968117376864295,"58":0.03321390395446101}},{"sx":1,"sy":1,"depth":59,"w":{"0":0.11716382766537688,"1":-0.10247644643799567,"2":-0.16654316296588037,"3":0.06351700564740283,"4":0.03508672851997124,"5":-0.2144768938139531,"6":0.06753561816190805,"7":-0.043728652084824196,"8":0.2836811568669284,"9":0.06868650130885942,"10":-0.011018667846761433,"11":-0.04019356943617892,"12":0.12957005030603574,"13":0.05936733342039738,"14":-0.18056717525971047,"15":0.08104364176380031,"16":0.32596345619340666,"17":-0.20021773580666338,"18":0.22163610338972609,"19":-0.02060239689699535,"20":-0.11380447829971496,"21":0.17598666079685663,"22":0.06543855383329303,"23":0.13901389043125786,"24":0.13823099553923518,"25":-0.009313121160646956,"26":0.10091157399846995,"27":-0.04623627077491852,"28":-0.0332459068038048,"29":-0.12863126473341446,"30":-0.04490597479477895,"31":-0.3541469129445469,"32":-0.18330603791207384,"33":-0.06462938923997043,"34":0.03690141313436173,"35":0.11482674278782384,"36":-0.04596921350946044,"37":0.16394022869884678,"38":-0.1260062355435788,"39":0.2281716617211023,"40":-0.11334354077971664,"41":-0.003563329282652174,"42":0.16147637654091626,"43":-0.13115003097572223,"44":0.03166164165837563,"45":0.1373863623585244,"46":0.0743133679888205,"47":-0.04124108062133797,"48":0.206521184697433,"49":0.050313608830569755,"50":-0.05859326373087849,"51":-0.11577357099156038,"52":-0.0036268917975834287,"53":0.09378458198346612,"54":-0.24565934371472906,"55":-0.05364438324375103,"56":-0.004267054605217159,"57":0.0020796559067660565,"58":-0.0061921177966667955}},{"sx":1,"sy":1,"depth":59,"w":{"0":-0.136572439258432,"1":-0.11515749387481057,"2":-0.05800022574478428,"3":-0.010657126857853593,"4":0.03942122378043755,"5":0.12972971089571878,"6":0.041822048058536586,"7":-0.29037182702787623,"8":-0.002129684594380899,"9":0.07375156156215651,"10":-0.06245068510111469,"11":-0.12760833722320597,"12":-0.20385488127235563,"13":-0.08405636768300369,"14":0.18844523263871413,"15":-0.2856524152932919,"16":0.08442589358320594,"17":-0.13322646156651008,"18":0.09027454745023376,"19":-0.023223310228969778,"20":-0.005086311019266796,"21":0.14996634681619814,"22":-0.2699108145683188,"23":-0.25488481388705664,"24":-0.20785028586852972,"25":0.03293003662008497,"26":-0.03386210477107953,"27":-0.09887501418290147,"28":-0.03297131164950274,"29":-0.1505260322844684,"30":0.0694654981362681,"31":-0.059528070772455685,"32":0.04292679452274226,"33":-0.10991198405580184,"34":0.19619150633194898,"35":0.23469071488113746,"36":-0.038212446692995033,"37":0.015636811927827707,"38":-0.1626371125513822,"39":-0.26448333916738465,"40":-0.13659312602664003,"41":-0.022478650307426695,"42":0.009462608678738226,"43":-0.13886159769772807,"44":-0.04182362098288891,"45":-0.15965863172228284,"46":-0.1258379009287756,"47":-0.11098421433217258,"48":0.0647493067146082,"49":0.0436488618796917,"50":0.0666958071912763,"51":-0.02470604833017513,"52":-0.03817712297212591,"53":0.018046069778116663,"54":0.038506384017802604,"55":-0.2696345420757309,"56":0.015244362153450462,"57":0.11090052875565086,"58":-0.12582966500936793}},{"sx":1,"sy":1,"depth":59,"w":{"0":0.0026040629176368626,"1":0.1047007485973243,"2":-0.11487594100545272,"3":-0.18047648268211747,"4":0.028951334548397798,"5":-0.2060649651748352,"6":0.01077796822769795,"7":0.19613012748834838,"8":-0.08470992504325532,"9":-0.07817129788701851,"10":-0.08091051714681192,"11":0.009954215781422764,"12":-0.29228989933287486,"13":-0.09310122589871492,"14":0.02658544895604431,"15":-0.1129961617194225,"16":0.04618883943882454,"17":-0.25945835013515495,"18":0.09905126935232964,"19":-0.002476410059580578,"20":-0.08638204349026167,"21":0.05390479236308691,"22":0.06910737095953855,"23":0.1605784964171471,"24":0.10689077828142296,"25":0.11701320711493475,"26":-0.029114236209811215,"27":-0.21888415922963586,"28":-0.19418419526264807,"29":-0.06475685460892157,"30":0.1175832953315494,"31":-0.11865748151960101,"32":0.06181046674363232,"33":0.16620063801629487,"34":-0.1396216006542534,"35":0.025771736748575858,"36":-0.06278393994669941,"37":0.21228282438585835,"38":-0.03003952135127643,"39":0.22926616207149383,"40":0.09256338605653554,"41":0.01946944070473462,"42":0.2531054127457538,"43":0.0889311326243778,"44":-0.2248908711753286,"45":0.11708125973542208,"46":-0.3027483148545883,"47":-0.17024394865707076,"48":0.1543251537171303,"49":-0.04534608028570045,"50":-0.06664639722920837,"51":-0.03832953514205284,"52":0.3302349870448915,"53":-0.06213143070860982,"54":-0.029536002809404115,"55":-0.10416488206395387,"56":0.07236554985536847,"57":0.003355516654380283,"58":-0.05479613146508133}},{"sx":1,"sy":1,"depth":59,"w":{"0":-0.06279134501989515,"1":-0.13134626333812577,"2":0.1925668420885936,"3":-0.3149265880222857,"4":0.2621029776309623,"5":-0.14187077310549756,"6":-0.39388797679758697,"7":-0.044257521223239324,"8":0.09858397698330831,"9":-0.18419535650513713,"10":0.09796708929915034,"11":0.1668144322979851,"12":-0.042442516235731004,"13":-0.031272882180364246,"14":-0.07210865862260671,"15":-0.17247605570771354,"16":0.03493844781547032,"17":-0.05386602438048026,"18":0.010024636497554206,"19":-0.20815267052047415,"20":0.06215080756351902,"21":-0.2938760988530235,"22":-0.1513734944291571,"23":-0.09699293018679614,"24":-0.2721956415669347,"25":0.05919974775631019,"26":-0.14107639041647238,"27":-0.14805800438971975,"28":0.07043075901285202,"29":0.18277480840474294,"30":-0.13354571451854413,"31":0.018309483714529756,"32":0.007356628824865849,"33":-0.2811177480820588,"34":0.014637984729721373,"35":-0.060412705955944515,"36":-0.09776698328774606,"37":-0.10547998083420013,"38":0.17097756712304302,"39":-0.12249182369924848,"40":-0.0691547462559082,"41":0.026040306679421248,"42":-0.1454721644660582,"43":0.0511608174346597,"44":0.16039889405108243,"45":-0.018080958947940474,"46":-0.04087481498198743,"47":0.1051441603667964,"48":-0.1495270331353129,"49":-0.022715856209472626,"50":0.05373730339182233,"51":0.2403079546317712,"52":-0.10335296284056068,"53":0.10032644659658611,"54":0.17968199935738802,"55":-0.15967064316663124,"56":0.11754987706440813,"57":-0.09326931348164745,"58":0.22545720395226387}},{"sx":1,"sy":1,"depth":59,"w":{"0":-0.042046531356192754,"1":-0.17050971825435948,"2":0.24562363452806552,"3":-0.022124789156055934,"4":0.3307160445068256,"5":-0.12918228456868852,"6":-0.06849011376145206,"7":0.20361195568340856,"8":-0.01928791004925484,"9":-0.0019670177648306877,"10":-0.024104110693869495,"11":0.06200059220728015,"12":-0.04236221641085149,"13":-0.1440035181194083,"14":0.13529620715120388,"15":0.018666053108294296,"16":-0.15385886862333334,"17":0.0017705056608713213,"18":-0.2985747446978973,"19":-0.01289040306181723,"20":0.10591234717263254,"21":0.06840621517379886,"22":0.33742276069787147,"23":-0.06703459545575872,"24":0.04927339483343354,"25":-0.19636502260690192,"26":0.00789138760176104,"27":0.21461432509398395,"28":-0.14522393437842884,"29":0.14832759467750184,"30":-0.12065163722085438,"31":0.010970282164223941,"32":0.02405666488045289,"33":-0.04704669868500968,"34":0.21769522796922003,"35":0.23444493859210985,"36":-0.13025748235414883,"37":-0.18349418660856162,"38":0.1460010033293181,"39":0.06516323685761073,"40":0.27928361510849087,"41":-0.009989805637690271,"42":-0.17593850569162295,"43":-0.08759976013314476,"44":0.23078891166937204,"45":-0.11110498175621479,"46":-0.04361622749715499,"47":-0.041832350496197726,"48":-0.24705887241861693,"49":-0.0806424146816989,"50":-0.2260992037750286,"51":0.011456691259699303,"52":0.05495083541990282,"53":0.00816427307198745,"54":0.1094038385503331,"55":0.022570461847183174,"56":-0.06297986142720706,"57":-0.22511171204352487,"58":0.04086188919275641}},{"sx":1,"sy":1,"depth":59,"w":{"0":-0.14255397645628146,"1":-0.061141930656744545,"2":0.047357355458681596,"3":-0.23516648215168656,"4":-0.09386007222950422,"5":0.061158746934175535,"6":-0.0720323842225383,"7":-0.1286298989918893,"8":0.001421326563715075,"9":-0.14614613227333687,"10":-0.16962007183730063,"11":0.13573663612331777,"12":-0.10277552858735454,"13":0.14659887945840985,"14":0.06402371900617897,"15":-0.15863761726963513,"16":-0.3435307819352241,"17":-0.11929019766463413,"18":0.05627386605758897,"19":-0.01060363542653089,"20":-0.06708545048096336,"21":0.06716798990260824,"22":-0.17371640225400467,"23":-0.057426552362472544,"24":-0.19007514910932027,"25":0.16916333185035365,"26":-0.01881209879500585,"27":-0.18118570226575906,"28":-0.04847025818366786,"29":0.03553352427951834,"30":-0.20190158878911932,"31":-0.06821913081257594,"32":-0.19450812338777695,"33":-0.15182679363512652,"34":-0.12491190923070729,"35":-0.16763453334216918,"36":-0.03023462481323911,"37":0.10222850283293833,"38":0.005245481144028145,"39":-0.04339679953644305,"40":0.27578740085361775,"41":-0.019193407269105,"42":-0.1853699406665077,"43":0.16889954609372768,"44":-0.10786519840750174,"45":-0.034175915043152975,"46":-0.06559428390869636,"47":-0.1585210503992101,"48":0.026874314427825046,"49":0.05427356719328539,"50":-0.018631905965648628,"51":-0.022479096608649694,"52":-0.09354540039930492,"53":-0.1873223439642779,"54":-0.24548319440805133,"55":-0.05874312916614036,"56":-0.14493353975820705,"57":0.17679155989375958,"58":-0.0733888214724505}},{"sx":1,"sy":1,"depth":59,"w":{"0":-0.3735894009432523,"1":-0.05226288082011948,"2":-0.0836402765198486,"3":-0.3041639311657441,"4":0.24302736037905026,"5":0.17119806999480436,"6":-0.4383709522237569,"7":0.0896460486597179,"8":-0.11999526531764375,"9":-0.2295287034747352,"10":0.24142222113622833,"11":-0.01229070196390214,"12":-0.452677268531794,"13":0.10372666357106922,"14":-0.02195198804336794,"15":-0.16585502869584887,"16":0.00801325095841144,"17":0.09716390358230814,"18":-0.29454645278349223,"19":-0.0015079729489771414,"20":-0.11786929170855061,"21":-0.4216322905784463,"22":0.31886925309676506,"23":-0.19325355756551296,"24":-0.0401492233296068,"25":0.1940836795122746,"26":-0.25925393018104115,"27":-0.05084549547016661,"28":0.0203448765115141,"29":0.13900039682195617,"30":-0.025190145464245327,"31":-0.07964228602431994,"32":-0.025518627169325372,"33":-0.2601220594940841,"34":-0.009228414174316562,"35":0.27444987056871545,"36":-0.21362750004451628,"37":-0.1712951025614979,"38":0.18343436780345262,"39":-0.20391951871013145,"40":-0.267116150245234,"41":0.04112996636223284,"42":-0.23874731480316372,"43":0.0029579584472346453,"44":0.16895568606402728,"45":-0.12192818518969929,"46":0.19980299380350816,"47":0.05228338409125395,"48":-0.32288019564166215,"49":-0.06580891188943035,"50":0.12576630030251149,"51":-0.029143255086028923,"52":-0.15742908575943715,"53":0.30012283144428303,"54":0.11625162157604826,"55":0.33561912648213504,"56":0.20356386346042618,"57":-0.13423600677681077,"58":0.2451737333164116}},{"sx":1,"sy":1,"depth":59,"w":{"0":-0.3187701608125773,"1":0.0872766708401994,"2":-0.2365418674268598,"3":-0.20662984439487175,"4":-0.050219247763263336,"5":-0.056966653264237554,"6":-0.12322101792074251,"7":0.1298178340414458,"8":-0.16212362216503043,"9":-0.23986055244717058,"10":0.08574297028192059,"11":-0.12833526327096323,"12":0.07315910313327778,"13":0.20147133002533996,"14":-0.016613547194478964,"15":-0.1475847403950335,"16":-0.12432269366431628,"17":-0.020898992855205523,"18":-0.23736259263015339,"19":-0.05342931052429028,"20":-0.02815390084881899,"21":-0.1917952338442489,"22":0.09540459419266885,"23":-0.062007146030088,"24":-0.2784322051853776,"25":-0.15760237382007852,"26":-0.243630994947,"27":0.0916482479358763,"28":-0.2061961204149672,"29":0.13266216953910487,"30":-0.24712838445574822,"31":-0.018266540724216084,"32":0.16503546281464918,"33":-0.1743633885217029,"34":0.08068968792328447,"35":-0.0010418831468864808,"36":-0.20093038538594618,"37":-0.14765959443418447,"38":0.16787250015329516,"39":-0.02425343708946184,"40":-0.021773011221783965,"41":0.03392183768940868,"42":-0.12355087623132038,"43":-0.06676648383496264,"44":-0.1349118718903809,"45":-0.15827367782535162,"46":-0.05045251066519732,"47":0.3651622880148045,"48":-0.05348022200816499,"49":0.0065260647472295,"50":-0.0550455493630406,"51":-0.07414891088186468,"52":-0.08400126529009498,"53":-0.15792955464445138,"54":-0.4392192415383229,"55":0.12130045439260662,"56":-0.17822073465665647,"57":0.06831012206477259,"58":-0.12835933697581586}}],"biases":{"sx":1,"sy":1,"depth":50,"w":{"0":0.08159888057273253,"1":0.10241868217228865,"2":0.05296169101836382,"3":0.10672410246772136,"4":0.10190951433806501,"5":0.09287487948518522,"6":0.09756096383030179,"7":0.0715486094854955,"8":0.0948143654245151,"9":0.0809990066730281,"10":0.08127550973692287,"11":0.10256041992523202,"12":0.0899521234490386,"13":0.08393032623131762,"14":0.08267652494261722,"15":0.09606320742541592,"16":0.12981439365479117,"17":0.09931404909713022,"18":0.09757868248406097,"19":0.026038725944436954,"20":0.09385210949889812,"21":0.10275350584292889,"22":0.1000066896497455,"23":0.10002932306740873,"24":0.08368333332741501,"25":0.1117969700765633,"26":0.0850841809914154,"27":0.09054122966824807,"28":0.10649308426045682,"29":0.10222014664951391,"30":0.09719971661546892,"31":0.09598670414924307,"32":0.1130250166885388,"33":0.12442101224022609,"34":0.13393962757761696,"35":0.12168902018448442,"36":0.09513492486675652,"37":0.09622288326396132,"38":0.08891915073024462,"39":0.08079926276345802,"40":0.09851916330929454,"41":0.10191485236187914,"42":0.09104475585866306,"43":0.09779292653951087,"44":0.09686129482192592,"45":0.10049649623446408,"46":0.10164234599409241,"47":0.10057693817300427,"48":0.11714568482302394,"49":0.1016807466094791}}},{"out_depth":50,"out_sx":1,"out_sy":1,"layer_type":"relu"},{"out_depth":50,"out_sx":1,"out_sy":1,"layer_type":"fc","num_inputs":50,"l1_decay_mul":0,"l2_decay_mul":1,"filters":[{"sx":1,"sy":1,"depth":50,"w":{"0":0.04011011207711377,"1":0.13226460289153472,"2":0.3153454162535356,"3":0.05744919066033561,"4":0.08470593996228098,"5":0.030795921604018128,"6":-0.1607172478087982,"7":0.24674076435822126,"8":0.2999692245843013,"9":0.3176269765964246,"10":0.15297038099260882,"11":0.07170683942986807,"12":-0.15468685229992055,"13":0.3243483021389374,"14":-0.17063761278008888,"15":-0.13277326815039753,"16":-0.06744935825095577,"17":-0.2745898845989425,"18":0.169778328196456,"19":0.35651991214546846,"20":0.05043153424446088,"21":-0.1167335618577533,"22":0.13796184869947492,"23":0.02724820535607629,"24":0.0033064318574136686,"25":-0.08572367146624013,"26":0.03493024131133847,"27":-0.30306802187966114,"28":-0.036214550076438964,"29":-0.12255691926015015,"30":0.15466613259902354,"31":0.03929861210506963,"32":-0.06821830157769884,"33":-0.08223786828192763,"34":-0.1959052175573401,"35":0.10446268617180382,"36":-0.29600443983092856,"37":0.160351939063002,"38":-0.146068538236446,"39":0.24356582115129272,"40":-0.016927004698754664,"41":0.17909872331841975,"42":-0.11903218597096013,"43":-0.08193418306136876,"44":-0.021760557416585377,"45":-0.12144197225093797,"46":0.055715813127111956,"47":-0.02289415065825781,"48":0.024092845499968818,"49":0.0053455235396560295}},{"sx":1,"sy":1,"depth":50,"w":{"0":0.24794409089923544,"1":-0.06753471066812625,"2":0.04969383890038644,"3":-0.31122487765284035,"4":0.2878987535964598,"5":0.01041468240678235,"6":0.1353642122513491,"7":0.07549711133946437,"8":-0.09108228024693824,"9":-0.31624507857763,"10":0.08782196193951348,"11":0.17053793650724397,"12":0.03802991271620227,"13":0.04310797288614486,"14":0.012656065395715054,"15":0.06473119345432944,"16":-0.05433791831559615,"17":0.06453445595252344,"18":0.016327817955573073,"19":0.03670010308970022,"20":0.042373201952488664,"21":-0.02052361077186445,"22":-0.12576119173420422,"23":0.30394219197546674,"24":0.08979957164152187,"25":0.2199588393571696,"26":0.09740374340295112,"27":-0.13797192822337032,"28":0.12301867552694987,"29":0.23855076711065357,"30":-0.0370954656468276,"31":-0.023607811043155697,"32":0.17786916138711978,"33":-0.10462089031029495,"34":-0.09437291291141867,"35":0.06781738531006096,"36":-0.07349284490504147,"37":0.09845931228198027,"38":-0.21045971097307908,"39":0.07276767138122597,"40":0.1416274397590496,"41":0.015077517927337145,"42":-0.28212189319618536,"43":-0.08562605644032893,"44":0.054022846993906797,"45":-0.17935992491658698,"46":0.14809095241184428,"47":0.06481415301162476,"48":0.10938442477264457,"49":0.2104046076126223}},{"sx":1,"sy":1,"depth":50,"w":{"0":-0.1220829724477157,"1":0.0666942587555211,"2":-0.2512295577620048,"3":-0.2105124196775886,"4":-0.01659043057976424,"5":-0.04740950792194307,"6":-0.11378225193801547,"7":0.07232018693760307,"8":0.10830851512801289,"9":-0.015642707842588463,"10":0.1449412161108042,"11":-0.4427056238707776,"12":-0.12822387625470227,"13":-0.027783251460691525,"14":0.175775374222239,"15":-0.21773979236743907,"16":-0.07464224490198297,"17":0.05335936786822431,"18":-0.030556915702041314,"19":-0.007066138503402223,"20":0.1163908582020315,"21":-0.011160270797329019,"22":-0.03334438408376307,"23":-0.11836291609805126,"24":-0.1428595679775218,"25":-0.09172368395475657,"26":0.1368040293965934,"27":-0.13822703672477119,"28":0.3061279598333284,"29":-0.10700750347822781,"30":-0.02596042622012312,"31":0.1663028311712933,"32":0.05123598730902836,"33":0.035713221828726056,"34":0.11498532435652879,"35":0.00025990860745735936,"36":-0.12022970281261035,"37":-0.10317305041792334,"38":-0.28141954883542547,"39":0.05187123260741552,"40":0.09426798953529952,"41":0.014796519910712317,"42":0.05830039528564748,"43":0.16890850093718174,"44":-0.10731980056517508,"45":0.009621643966929236,"46":-0.05305055766212413,"47":-0.021843803925707343,"48":-0.11637756111687586,"49":-0.234120624931112}},{"sx":1,"sy":1,"depth":50,"w":{"0":-0.029380141121102963,"1":0.002805944242678938,"2":0.19515654562069187,"3":-0.002279659719006672,"4":0.06176060750584742,"5":0.11773360150615557,"6":0.05597999629598459,"7":0.22852788831936832,"8":0.1247118690678985,"9":0.21818113498961086,"10":-0.055101948155644086,"11":-0.31153671174360476,"12":0.07312649839982957,"13":0.31222919477171,"14":0.2886799299187069,"15":-0.2302602275066331,"16":-0.5082985247605946,"17":-0.015252926686851805,"18":0.0022605443294351503,"19":0.24126885637229292,"20":0.03019793840133008,"21":0.09120904672212024,"22":-0.2757526809016588,"23":-0.14945791523193233,"24":0.10264439945106728,"25":0.20079730631780995,"26":0.3520375798542136,"27":-0.10995810401771595,"28":-0.12157019310804328,"29":-0.12151539454543686,"30":0.18265619683393905,"31":0.010277246440954539,"32":-0.21964846074663422,"33":0.12990695231674013,"34":-0.046552671311162544,"35":-0.08510108178642976,"36":0.10384319895523922,"37":-0.006556393063863187,"38":0.11497917984175023,"39":0.012347782803572727,"40":0.012708957243872911,"41":-0.11045381593710671,"42":0.2081726053611486,"43":-0.08960030210172559,"44":-0.040480256625615184,"45":0.05088862489823358,"46":-0.13928118357141067,"47":0.11858325352082033,"48":0.08077159325256915,"49":-0.3769683538761781}},{"sx":1,"sy":1,"depth":50,"w":{"0":-0.008778718555187871,"1":0.11950226772358741,"2":-0.1497616664540131,"3":0.019572190787996283,"4":-0.016330235189381315,"5":0.06659814781381301,"6":-0.010933005459518615,"7":0.046243182693921,"8":0.0011425859660505631,"9":0.1831675899211631,"10":0.0669249513495956,"11":-0.16094110529668237,"12":0.03924666358418657,"13":0.12923406514157726,"14":0.11927750460696322,"15":0.08306159008126517,"16":-0.1724151343784219,"17":0.022109807343354566,"18":0.27107925046522,"19":0.09187085324094564,"20":0.08297025474894144,"21":0.02129496072563029,"22":0.1563272885588368,"23":-0.07882393064653603,"24":0.13921193567247694,"25":0.08169006367259392,"26":0.08807919459414602,"27":0.1430150072014706,"28":0.08504069679544075,"29":0.17884613901824872,"30":-0.15518061207893694,"31":-0.08768036168706023,"32":0.009300093226305622,"33":-0.000729810284024569,"34":0.12716362954830857,"35":-0.1383754812569953,"36":0.12848206192041975,"37":0.07580205723179355,"38":-0.14757070242261078,"39":0.0838724340005154,"40":0.1325303510564551,"41":-0.030149474565024134,"42":-0.03496435596812054,"43":-0.07885578734693079,"44":0.2378689211552083,"45":-0.14788108017036475,"46":0.08362971929899765,"47":-0.33457029801948396,"48":-0.28194460660350434,"49":0.15615979869052507}},{"sx":1,"sy":1,"depth":50,"w":{"0":-0.01619801464355106,"1":0.06828829214870595,"2":0.20094036547679253,"3":-0.05606253769594458,"4":-0.017444360230156927,"5":-0.14252736057154683,"6":0.40556752602051527,"7":-0.2809838775984714,"8":0.10660549993480922,"9":-0.08749210679862039,"10":-0.032055445154646305,"11":-0.014457587551463919,"12":0.23534738976821074,"13":0.13762508098058376,"14":-0.0644490859702716,"15":0.045478195695452896,"16":-0.022875703315598298,"17":-0.04089736563843426,"18":-0.02216785960797262,"19":-0.0659327817433627,"20":-0.1288783881878392,"21":0.15469618473438296,"22":0.11299236303017177,"23":0.026897662246805825,"24":0.21281443522509394,"25":0.1360673926976969,"26":0.20212081959444625,"27":-0.10691735019032698,"28":0.008545053946927126,"29":-0.19161357415894875,"30":0.029539247690317613,"31":-0.14417215913496653,"32":0.23633517236226032,"33":-0.044291360705407005,"34":0.25117283724914224,"35":0.012571231233422867,"36":-0.11664022979738771,"37":0.07120334529425261,"38":0.011774001452219069,"39":-0.1824671048258705,"40":0.17300643058249743,"41":0.07664321317172088,"42":0.03743512013841836,"43":-0.05650006679354818,"44":0.19377486573060304,"45":-0.19570490179408073,"46":-0.1147128601206576,"47":-0.0191574187780676,"48":-0.11889812867502848,"49":0.03983483392973818}},{"sx":1,"sy":1,"depth":50,"w":{"0":0.08571722750607594,"1":0.14959147455243377,"2":0.06578518164557084,"3":0.11147260175289922,"4":0.10427150064173608,"5":-0.2227322810245338,"6":-0.13061652494784046,"7":-0.016047038978596176,"8":0.1535627012216151,"9":0.08291719167556999,"10":0.12169365586140153,"11":-0.044115129739056645,"12":-0.10126599670696997,"13":-0.1605572336616617,"14":0.04708015009841015,"15":0.24948304337570693,"16":0.28416672353976674,"17":-0.09252020598473915,"18":-0.21879393135908856,"19":-0.05030464363157967,"20":-0.023363898050926778,"21":-0.10349249986214026,"22":0.19907843341615652,"23":-0.005745054130558976,"24":0.19783148855236143,"25":-0.11931316974983146,"26":-0.021303047434874302,"27":-0.13099310445592785,"28":0.14115911755241461,"29":-0.05236911306834788,"30":0.17753054858395376,"31":-0.08729182860300588,"32":-0.0025333579800153588,"33":0.020808305310333817,"34":-0.021208136405536405,"35":0.040774483440897805,"36":0.05538652506957254,"37":0.08956089293604937,"38":-0.03258700320818012,"39":0.18264312781776346,"40":-0.23746941038595934,"41":-0.07576813618442359,"42":-0.10265800219528079,"43":-0.0654798121789566,"44":-0.10050918258277285,"45":0.059198080894517856,"46":0.025725971323198888,"47":-0.2725389493606702,"48":-0.04338237651508718,"49":0.02280579854051907}},{"sx":1,"sy":1,"depth":50,"w":{"0":0.07408296248595898,"1":0.014659802085512284,"2":0.034659747988068944,"3":-0.11215425276405569,"4":0.09759560726738613,"5":-0.012529960345838559,"6":-0.16159948720999448,"7":-0.11069773521387127,"8":0.010681839177346015,"9":-0.3129825503288718,"10":-0.17387265790353754,"11":-0.1247734441500965,"12":-0.24378937918372642,"13":0.011003315321317647,"14":-0.38975663296358165,"15":-0.028702400929071805,"16":0.07275789800354068,"17":-0.10659150873165599,"18":-0.2430202259411817,"19":0.10206895279883425,"20":0.10011837804523384,"21":0.2237078350706717,"22":0.07718067885884017,"23":0.21045864158084768,"24":-0.008785740418619627,"25":-0.09497627589819395,"26":-0.1605460523423576,"27":-0.06177439134009337,"28":-0.013587977858286939,"29":0.11237633876193413,"30":0.09263552878811426,"31":0.12940994857654328,"32":0.3330927420757548,"33":0.07679367035918092,"34":-0.2955614045995806,"35":-0.15622355248217262,"36":0.011841342877385353,"37":-0.08015087992770549,"38":0.1716306758302719,"39":0.15433892269912003,"40":-0.13089573737179788,"41":-0.140369678683984,"42":0.16531994528829694,"43":-0.22762103008757653,"44":-0.0005191779171417893,"45":0.0034722579352714582,"46":0.11609563560285252,"47":-0.03238809582665333,"48":0.07079530153128595,"49":0.013744236326333136}},{"sx":1,"sy":1,"depth":50,"w":{"0":0.06822815129763321,"1":0.12103518334063854,"2":0.14062201023158072,"3":-0.07640719555790378,"4":-0.05190532872768052,"5":-0.047368673716406885,"6":-0.07127346973003192,"7":-0.045317612381359215,"8":0.2738688136140717,"9":0.11662277939623814,"10":0.030558002326970344,"11":-0.09665590532309538,"12":0.054754773548951675,"13":-0.12669758265285827,"14":-0.1377460750793516,"15":-0.05507954750281743,"16":0.24757454961760275,"17":-0.17165855743764774,"18":0.1522973687496736,"19":-0.050987768096514285,"20":0.05577711852679195,"21":0.02154696088563351,"22":-0.028643330480182062,"23":0.041698736417903455,"24":-0.024932634650754397,"25":-0.1014990103750087,"26":0.039971016350769314,"27":-0.2046160580354335,"28":0.09735789423507002,"29":0.10147566133597787,"30":0.0809024358807802,"31":0.26516250838394756,"32":-0.016674780354034056,"33":-0.011782059213817,"34":-0.10995327858305926,"35":0.1408568644019731,"36":0.2187424946523265,"37":0.17276421079591378,"38":-0.10374640862380248,"39":0.03104903641669158,"40":-0.1497425848083895,"41":0.03560091747296001,"42":0.19996770246890366,"43":0.32782623153181717,"44":-0.011774735198318552,"45":-0.004059315368926447,"46":0.05916746931569646,"47":0.04398783071822163,"48":-0.08819885220736373,"49":-0.020632111082022186}},{"sx":1,"sy":1,"depth":50,"w":{"0":-0.38374705027816886,"1":-0.013342017991918828,"2":-0.2862209604354349,"3":0.1010319634638163,"4":-0.09770752548440982,"5":0.22203831008970976,"6":0.012308235364323971,"7":-0.19344726468810325,"8":0.02878763000964953,"9":-0.0877256988425599,"10":-0.1102415502797211,"11":-0.1892167318070586,"12":-0.01892471620652223,"13":-0.0720649944556884,"14":0.01907822927882686,"15":-0.1847342792876406,"16":0.16247837770657794,"17":0.1678855939746206,"18":-0.027357917212185442,"19":-0.43946540987330623,"20":0.019529674694391007,"21":-0.21273648742385115,"22":0.0838011966019319,"23":0.01557015627316569,"24":0.08588679949683217,"25":0.14348943852083085,"26":-0.09827102771690523,"27":-0.18122847794463612,"28":0.27178592031421794,"29":0.16960036460686753,"30":0.23826386316357698,"31":-0.01926082701421018,"32":-0.0717251265465737,"33":0.2055243519742747,"34":-0.04260690126946969,"35":0.3774671967633863,"36":-0.03256344369217124,"37":0.11860307024584245,"38":0.023336772939017685,"39":0.026688780243229262,"40":0.11360690793182972,"41":-0.2177993376395294,"42":0.17082086149195203,"43":-0.028960472816189242,"44":-0.005025726931729626,"45":0.1765321840877636,"46":0.03358078640842114,"47":0.10127967032322269,"48":0.19605448483475077,"49":-0.13707754987138998}},{"sx":1,"sy":1,"depth":50,"w":{"0":-0.2939100478823818,"1":-0.030266296891585408,"2":0.017604611099021734,"3":0.19718570606291794,"4":0.08991825339172742,"5":0.0636148473381608,"6":-0.2016074325436618,"7":-0.2799146866476954,"8":-0.03141389010212271,"9":0.23343955038896996,"10":-0.06101397279145485,"11":-0.07722563211434912,"12":0.13274385412451228,"13":0.06323147850324543,"14":-0.059208953054785275,"15":-0.043518450383278034,"16":-0.07695810285578872,"17":-0.012551126655019286,"18":0.020708026819190574,"19":0.36358557034118805,"20":-0.03823403729884169,"21":-0.010943353524761527,"22":-0.021416996157288582,"23":-0.051671649529391586,"24":-0.2166239932651801,"25":-0.1088177475844657,"26":0.0851334856629392,"27":-0.0023661859307339095,"28":-0.14347567845009998,"29":0.40158084833877156,"30":0.2991540519569126,"31":0.353364921149277,"32":0.3460955051755836,"33":0.0260221358845395,"34":-0.19833778919723274,"35":-0.019762414235850356,"36":0.09638545049449733,"37":0.0019558094931136937,"38":0.16881726917884324,"39":-0.25119520957366187,"40":-0.06635093103298183,"41":-0.010915533748337963,"42":0.032904183785171466,"43":0.2805182775117019,"44":0.17148103062455816,"45":-0.08620220519746502,"46":0.257895281282563,"47":0.06920759623187707,"48":0.04261413600243058,"49":-0.039982633845277976}},{"sx":1,"sy":1,"depth":50,"w":{"0":0.03344879486638677,"1":0.12865545604919273,"2":-0.062113500194381464,"3":0.13903708599466522,"4":0.09724356517350592,"5":0.014886828011479409,"6":0.13124487643017824,"7":-0.05938989848478139,"8":0.40507277772991934,"9":0.05374167273754683,"10":0.20552737859303427,"11":0.07490591086895239,"12":-0.11710454056968593,"13":-0.11795725543520172,"14":0.1278889234702654,"15":0.022986439449016013,"16":0.2699915704449595,"17":0.11469457354483255,"18":-0.253209668645198,"19":-0.5114962250244126,"20":0.00341409815056013,"21":-0.10158334953453696,"22":0.11009736826340905,"23":0.11169829094164282,"24":-0.11880963380234562,"25":0.12708820693980555,"26":-0.19100787698738483,"27":0.19979412680500758,"28":0.29168476712368696,"29":-0.08465970318321848,"30":0.04149933098197081,"31":-0.004075061728713111,"32":0.17244180225008288,"33":0.17517919700277318,"34":0.06908446568524078,"35":0.1189487461878997,"36":0.05480824628401293,"37":-0.026240845883330605,"38":0.020414807413075775,"39":-0.04159323782341328,"40":0.011112487603748318,"41":0.11097157837828402,"42":-0.0195663343002815,"43":0.022267300257408775,"44":0.0995730122806628,"45":0.17366545973818562,"46":-0.1406948195292326,"47":0.0809952723405377,"48":0.18979882289675062,"49":0.14124219389223414}},{"sx":1,"sy":1,"depth":50,"w":{"0":0.008138302684091448,"1":-0.15557535450759702,"2":0.055851142295293914,"3":0.014066633034616834,"4":0.057854553902509986,"5":0.035559584961216494,"6":-0.12030688669675425,"7":-0.24551706254283084,"8":-0.0808722605585374,"9":-0.16813614808049,"10":-0.03374480941142879,"11":0.08771769674850992,"12":0.019683501481947106,"13":-0.18532367306443448,"14":-0.22684892479453153,"15":-0.07037671203631798,"16":-0.07296364001152608,"17":0.15837983503335537,"18":-0.011211474996011838,"19":0.02521116673988236,"20":-0.01930671091530657,"21":0.012700017655579269,"22":-0.24614989886412184,"23":-0.02394685713459122,"24":0.026032477322268342,"25":-0.044626168803894,"26":-0.15300247559428215,"27":-0.17866193278735942,"28":0.20796326197755688,"29":0.0049498938886283015,"30":0.13869773811159686,"31":0.023805642556029516,"32":0.08687145935647887,"33":0.1929349801625371,"34":-0.11439737357772103,"35":-0.05580419006988835,"36":0.014224795634994666,"37":-0.3920144676970875,"38":-0.08237903189345842,"39":0.05571648003546184,"40":0.23010036166386735,"41":-0.1807711731763261,"42":0.04493787021267307,"43":0.08045216123366201,"44":-0.13507150394202486,"45":-0.035106146896739986,"46":-0.2533786454063421,"47":0.04679268295789465,"48":-0.028030175422857854,"49":0.02377241266293964}},{"sx":1,"sy":1,"depth":50,"w":{"0":0.16645227757841957,"1":-0.0975474197772678,"2":0.3944431640314057,"3":0.1376572036310975,"4":-0.07557267879643392,"5":0.0808468295284351,"6":0.18174896563274026,"7":-0.2316464789945185,"8":-0.1184341897772635,"9":-0.10346176204087264,"10":-0.15289629062174523,"11":0.15841444476431357,"12":0.20210568434544562,"13":0.008634690216260168,"14":0.053554700789396774,"15":-0.4802230907332369,"16":-0.3001372304619872,"17":0.02535816198695788,"18":0.23574392532150237,"19":-0.10608358095046823,"20":0.04096867385156578,"21":0.14299866052371238,"22":0.007398987315490432,"23":-0.09457102406645679,"24":0.050751146708079814,"25":-0.2387805401381044,"26":0.36277310085857467,"27":-0.09297823935280185,"28":0.10770018457057337,"29":-0.017385588701267093,"30":0.111766457255767,"31":0.05987832010804421,"32":-0.26872518572028764,"33":0.19158381380181758,"34":-0.058541847107549325,"35":0.05761761552153979,"36":0.15375024026947115,"37":0.13264733474798238,"38":-0.008619335388057314,"39":-0.008653978673364815,"40":0.1020448721798809,"41":0.015084240627177834,"42":0.02698147460204596,"43":-0.025559360894987074,"44":-0.12875456955972267,"45":-0.09619660292578627,"46":-0.14742482334429746,"47":-0.02877039336146552,"48":0.18976743589484527,"49":0.020688912070934738}},{"sx":1,"sy":1,"depth":50,"w":{"0":0.0254844976229127,"1":0.12247804809065302,"2":-0.021679613260741484,"3":0.3805881860547961,"4":-0.09321233009800843,"5":0.10534668571473314,"6":0.09360104968320956,"7":-0.05537303342983126,"8":-0.3009416659783617,"9":-0.2696384652147649,"10":0.006778497705111995,"11":0.014743117924051986,"12":-0.009167597034579773,"13":0.20038104320688485,"14":-0.07182248981179197,"15":-0.05923372754638029,"16":-0.21992738879866527,"17":-0.11217630334348128,"18":-0.09598154892553439,"19":-0.2977598689929783,"20":0.15138848298011412,"21":0.044238136627145395,"22":0.14790580626309727,"23":0.043749510683296605,"24":-0.16192337480266758,"25":0.1298320020855389,"26":-0.0379125153308584,"27":0.04916911396974142,"28":-0.04978145946159206,"29":-0.22484199132853439,"30":0.030244377948674833,"31":-0.01950411355317124,"32":-0.004410969855770676,"33":0.16015264531454243,"34":-0.2803794399836691,"35":-0.28356096257973706,"36":0.13273778173399833,"37":0.13948269101230668,"38":-0.22236788365357757,"39":-0.10185661357523401,"40":-0.08729559781519224,"41":0.05316046447848201,"42":0.023120461488930544,"43":0.09806464987169161,"44":0.06244226476572283,"45":0.10217892264158215,"46":0.13864114592164303,"47":0.11226732856781918,"48":0.1940758420301371,"49":-0.19599628001208777}},{"sx":1,"sy":1,"depth":50,"w":{"0":-0.31063095891437253,"1":0.22555840479464404,"2":-0.28946384643947687,"3":0.17056324767547795,"4":-0.006701258597648215,"5":0.10670893444290766,"6":-0.12870707054186253,"7":0.24389618702806895,"8":0.210368750941681,"9":-0.02098717220494819,"10":0.1846236676786569,"11":0.17407181699770113,"12":-0.058340606252520924,"13":0.05726662855567012,"14":-0.026438921198076882,"15":0.0886743093781641,"16":-0.20651739629311916,"17":-0.0021748301338335775,"18":0.08082159597708134,"19":-0.14323545627459702,"20":0.2418076803951647,"21":0.006800281291358139,"22":-0.20763928236609788,"23":0.10404707494075775,"24":-0.12888677508550825,"25":-0.04180479386029878,"26":0.07751202845818032,"27":0.1741144379247084,"28":0.05162392465176693,"29":-0.142605209113387,"30":0.016434755113669767,"31":0.15246422922731992,"32":-0.00682335374630283,"33":-0.10394606184193286,"34":0.15543916308576033,"35":0.054772701644269305,"36":0.06981991649719559,"37":-0.03955615118062971,"38":0.04637513860731243,"39":-0.052484904031906025,"40":-0.06873174379727659,"41":-0.17704142226764666,"42":0.00350056888160381,"43":-0.2283996783005722,"44":-0.25992754494898035,"45":-0.1868018257682436,"46":-0.14399112377900802,"47":0.026221771567441935,"48":-0.0197830103472237,"49":0.019499440109995818}},{"sx":1,"sy":1,"depth":50,"w":{"0":0.15642613087443866,"1":-0.19253573219466522,"2":0.18507331571018876,"3":-0.10775874629694428,"4":0.08948279603440397,"5":-0.2420937442106926,"6":0.024153463571213046,"7":0.09910845031133012,"8":-0.24212522845337764,"9":-0.15173018106149325,"10":0.07647004468388333,"11":-0.313274256923961,"12":0.25312898854418603,"13":0.08025933748145032,"14":0.06807345973685924,"15":-0.11605516722639972,"16":-0.009725115163020343,"17":-0.04919064042583779,"18":-0.10976185415493254,"19":-0.02719402680144762,"20":0.07872679447581106,"21":-0.21692921046434951,"22":0.13348346491253263,"23":-0.05195733017583718,"24":0.16394135426151413,"25":0.017033511964882092,"26":-0.07061335557661884,"27":-0.3173161260358271,"28":0.05826265510851481,"29":0.19787116621751072,"30":0.2926497264305657,"31":-0.03071922183970371,"32":0.13065969466056762,"33":-0.021970958411447264,"34":0.09952934726033151,"35":-0.13446904918567223,"36":-0.021964269101877123,"37":0.03839090506159915,"38":-0.0654022827208253,"39":0.12224961734169819,"40":-0.09974157601929626,"41":-0.020086042360028672,"42":-0.06254812747285657,"43":-0.17367116063882967,"44":0.051854849193260354,"45":0.06818489920192095,"46":-0.16221572361584988,"47":0.08008788054326735,"48":0.04220224620842228,"49":-0.04503007143334799}},{"sx":1,"sy":1,"depth":50,"w":{"0":-0.3006464475911753,"1":0.059770560607878574,"2":0.08099714360380539,